{"learner":{"attributes":{"best_iteration":"99","best_ntree_limit":"100","scikit_learn":"{\"use_label_encoder\": null, \"n_estimators\": 100, \"objective\": \"binary:logistic\", \"max_depth\": null, \"max_leaves\": null, \"max_bin\": null, \"grow_policy\": null, \"learning_rate\": null, \"verbosity\": null, \"booster\": null, \"tree_method\": null, \"gamma\": null, \"min_child_weight\": null, \"max_delta_step\": null, \"subsample\": null, \"sampling_method\": null, \"colsample_bytree\": null, \"colsample_bylevel\": null, \"colsample_bynode\": null, \"reg_alpha\": null, \"reg_lambda\": null, \"scale_pos_weight\": null, \"base_score\": null, \"missing\": NaN, \"num_parallel_tree\": null, \"random_state\": 1, \"n_jobs\": null, \"monotone_constraints\": null, \"interaction_constraints\": null, \"importance_type\": null, \"gpu_id\": null, \"validate_parameters\": null, \"predictor\": null, \"enable_categorical\": false, \"feature_types\": null, \"max_cat_to_onehot\": null, \"max_cat_threshold\": null, \"eval_metric\": null, \"early_stopping_rounds\": null, \"callbacks\": null, \"classes_\": [0, 1], \"n_classes_\": 2, \"_estimator_type\": \"classifier\"}"},"feature_names":[],"feature_types":[],"gradient_booster":{"model":{"gbtree_model_param":{"num_parallel_tree":"1","num_trees":"100","size_leaf_vector":"0"},"tree_info":[0,0,0,0,0,0,0,0,0,0,0,0,0,0,0,0,0,0,0,0,0,0,0,0,0,0,0,0,0,0,0,0,0,0,0,0,0,0,0,0,0,0,0,0,0,0,0,0,0,0,0,0,0,0,0,0,0,0,0,0,0,0,0,0,0,0,0,0,0,0,0,0,0,0,0,0,0,0,0,0,0,0,0,0,0,0,0,0,0,0,0,0,0,0,0,0,0,0,0,0],"trees":[{"base_weights":[-1.2601637E0,-1.3994651E0,-1.0964428E0,-1.4973485E0,-1.1907836E0,-1.1314702E0,-8.4745765E-2,-1.5381002E0,-1.0651131E0,-1.2469863E0,-6.6319895E-1,-1.0934868E0,-1.7262985E0,-4.2975205E-1,6.4912283E-1,-1.575164E0,-1.3324884E0,-1.1311706E0,1.1111112E0,-1.299365E0,-7.4302495E-1,-9.492754E-1,6.334842E-2,-1.1127242E0,-1.4099216E-1,-1.7722682E0,-1.28125E0,-3.2946634E-1,-1.1578947E0,4.3850267E-1,1.4666667E0,-1.6187078E0,-1.3726842E0,-1.5501406E0,-1.1503067E0,-1.1814895E0,7.692308E-1,-0E0,1.3513514E0,-1.3656327E0,-7.6625174E-1,-7.9635257E-1,6.666667E-1,-1.0197629E0,-1.6E-1,2.2222222E-1,-7.777778E-1,-1.1542068E0,-6.866029E-1,4.5833334E-1,-7.2820514E-1,-1.3225807E0,-0E0,-4.1269842E-1,2.4561404E-1,-1.372549E0,4E-1,9.677419E-1,1.7054264E-1,1.6E0,2.2222222E-1,-1.6418726E0,-1.4210985E0,-1.3913808E0,-4.3137255E-1,-1.5779468E0,3.1578946E-1,-8.3789474E-1,-1.3229291E0,-1.24568E0,4.2857143E-1,-5E-1,1.4074074E0,-5E-1,5E-1,1.5384616E0,6.666667E-1,-1.416164E0,-1.03125E0,-8.1948423E-1,6.2068963E-1,-8.383046E-1,4E-1,9.0909094E-1,-2.2222222E-1,-1.075E0,-0E0,-5.945946E-1,8.235294E-1,3.3333334E-1,-1.3846154E0,-1.2E0,8E-1,-1.1644644E0,3.3333334E-1,-7.832072E-1,-4.4843048E-2,-3.508772E-2,1.1219512E0,-1.25E0,2.535211E-1,-1.3666667E0,-0E0,-4.6067417E-1,3.0769232E-1,6.25E-1,-2.0689656E-1,1.2307693E0,-2.857143E-1,-8.5714287E-1,5.3061223E-1],"categories":[],"categories_nodes":[],"categories_segments":[],"categories_sizes":[],"default_left":[1,1,1,1,1,1,1,1,1,1,1,1,1,1,1,1,1,1,1,1,1,1,1,1,1,0,1,1,1,1,1,1,1,1,1,1,1,1,1,1,1,1,1,1,1,1,1,1,1,1,1,1,0,1,1,0,0,1,1,0,0,0,0,0,0,0,0,0,0,0,0,0,0,0,0,0,0,0,0,0,0,0,0,0,0,0,0,0,0,0,0,0,0,0,0,0,0,0,0,0,0,0,0,0,0,0,0,0,0,0,0],"id":0,"left_children":[1,3,5,7,9,11,13,15,17,19,21,23,25,27,29,31,33,35,37,39,41,43,45,47,49,-1,51,53,55,57,59,61,63,65,67,69,71,73,75,77,79,81,83,85,87,89,91,93,95,97,99,101,-1,103,105,-1,-1,107,109,-1,-1,-1,-1,-1,-1,-1,-1,-1,-1,-1,-1,-1,-1,-1,-1,-1,-1,-1,-1,-1,-1,-1,-1,-1,-1,-1,-1,-1,-1,-1,-1,-1,-1,-1,-1,-1,-1,-1,-1,-1,-1,-1,-1,-1,-1,-1,-1,-1,-1,-1,-1],"loss_changes":[2.5904297E2,1.2423926E2,1.8619629E2,7.22666E1,5.772754E1,1.12910645E2,4.5093464E1,2.7103516E1,5.3691864E1,4.611328E1,4.001892E1,8.740674E1,3.9334106E0,8.454212E0,9.171761E0,2.635498E1,2.168103E1,3.4808258E1,3.0030022E0,5.598242E1,1.3329529E1,7.5143433E0,7.5560584E0,8.2004395E1,3.4031223E1,0E0,1.6945572E0,5.258832E0,5.3143444E0,6.4648094E0,1.5111103E0,9.852539E0,9.611938E0,1.433844E1,1.6472504E1,3.6267303E1,8.601139E0,1E0,1.593895E-1,2.2778076E1,1.3853493E1,8.591469E0,1.6565657E0,7.125595E0,5.832623E0,8.897436E0,6.955556E0,6.549707E1,2.5879517E1,1.5756633E1,2.5289564E1,1.8075256E0,0E0,3.4077873E0,2.5756955E0,0E0,0E0,5.461894E0,1.2388546E1,0E0,0E0,0E0,0E0,0E0,0E0,0E0,0E0,0E0,0E0,0E0,0E0,0E0,0E0,0E0,0E0,0E0,0E0,0E0,0E0,0E0,0E0,0E0,0E0,0E0,0E0,0E0,0E0,0E0,0E0,0E0,0E0,0E0,0E0,0E0,0E0,0E0,0E0,0E0,0E0,0E0,0E0,0E0,0E0,0E0,0E0,0E0,0E0,0E0,0E0,0E0,0E0],"parents":[2147483647,0,0,1,1,2,2,3,3,4,4,5,5,6,6,7,7,8,8,9,9,10,10,11,11,12,12,13,13,14,14,15,15,16,16,17,17,18,18,19,19,20,20,21,21,22,22,23,23,24,24,26,26,27,27,28,28,29,29,30,30,31,31,32,32,33,33,34,34,35,35,36,36,37,37,38,38,39,39,40,40,41,41,42,42,43,43,44,44,45,45,46,46,47,47,48,48,49,49,50,50,51,51,53,53,54,54,57,57,58,58],"right_children":[2,4,6,8,10,12,14,16,18,20,22,24,26,28,30,32,34,36,38,40,42,44,46,48,50,-1,52,54,56,58,60,62,64,66,68,70,72,74,76,78,80,82,84,86,88,90,92,94,96,98,100,102,-1,104,106,-1,-1,108,110,-1,-1,-1,-1,-1,-1,-1,-1,-1,-1,-1,-1,-1,-1,-1,-1,-1,-1,-1,-1,-1,-1,-1,-1,-1,-1,-1,-1,-1,-1,-1,-1,-1,-1,-1,-1,-1,-1,-1,-1,-1,-1,-1,-1,-1,-1,-1,-1,-1,-1,-1,-1],"split_conditions":[-9.536743E-7,5.9174204E-1,-9.536743E-7,-9.536743E-7,-9.536743E-7,-9.536743E-7,-3.1797838E-1,-9.536743E-7,-9.536743E-7,-9.536743E-7,-9.536743E-7,-9.536743E-7,-9.536743E-7,-9.536743E-7,-9.536743E-7,-9.536743E-7,-6.898767E-1,-9.536743E-7,-1.061775E0,-9.536743E-7,-9.536743E-7,-9.536743E-7,-9.536743E-7,-9.536743E-7,5.3309655E-1,-5.3168046E-1,-9.536743E-7,-9.536743E-7,-9.536743E-7,-2.4750877E-2,-9.536743E-7,-9.536743E-7,-9.536743E-7,-9.536743E-7,-9.536743E-7,-9.536743E-7,-9.536743E-7,-9.536743E-7,-2.4750879E-2,-9.536743E-7,-9.536743E-7,-9.536743E-7,1.3798803E0,-9.536743E-7,1.4842979E0,-9.536743E-7,-9.536743E-7,-9.536743E-7,-9.536743E-7,-1.2487733E-1,1.3341081E0,-9.536743E-7,-0E0,-9.536743E-7,-1.7984195E0,-4.1176474E-1,1.20000005E-1,-9.536743E-7,2.756285E-1,4.8000002E-1,6.666667E-2,-4.9256182E-1,-4.2632955E-1,-4.1741425E-1,-1.2941177E-1,-4.7338405E-1,9.4736844E-2,-2.5136843E-1,-3.9687875E-1,-3.7370402E-1,1.2857144E-1,-1.5E-1,4.2222223E-1,-1.5E-1,1.5E-1,4.615385E-1,2.0000002E-1,-4.2484924E-1,-3.0937502E-1,-2.4584527E-1,1.8620689E-1,-2.514914E-1,1.20000005E-1,2.7272728E-1,-6.666667E-2,-3.2250002E-1,-0E0,-1.7837839E-1,2.4705884E-1,1.0000001E-1,-4.1538465E-1,-3.6E-1,2.4000001E-1,-3.493393E-1,1.0000001E-1,-2.3496217E-1,-1.3452915E-2,-1.0526316E-2,3.3658537E-1,-3.75E-1,7.605634E-2,-4.1000003E-1,-0E0,-1.3820225E-1,9.23077E-2,1.875E-1,-6.206897E-2,3.692308E-1,-8.5714296E-2,-2.5714287E-1,1.5918368E-1],"split_indices":[100,0,83,139,144,18,0,95,126,139,90,65,139,136,99,99,0,116,0,142,111,41,93,139,0,0,126,140,93,0,139,144,110,116,81,111,81,81,0,143,107,118,0,122,0,106,118,63,91,0,0,128,0,142,0,0,0,143,0,0,0,0,0,0,0,0,0,0,0,0,0,0,0,0,0,0,0,0,0,0,0,0,0,0,0,0,0,0,0,0,0,0,0,0,0,0,0,0,0,0,0,0,0,0,0,0,0,0,0,0,0],"split_type":[0,0,0,0,0,0,0,0,0,0,0,0,0,0,0,0,0,0,0,0,0,0,0,0,0,0,0,0,0,0,0,0,0,0,0,0,0,0,0,0,0,0,0,0,0,0,0,0,0,0,0,0,0,0,0,0,0,0,0,0,0,0,0,0,0,0,0,0,0,0,0,0,0,0,0,0,0,0,0,0,0,0,0,0,0,0,0,0,0,0,0,0,0,0,0,0,0,0,0,0,0,0,0,0,0,0,0,0,0,0,0],"sum_hessian":[1.14245E4,6.1685E3,5.256E3,4.19475E3,1.97375E3,5.08E3,1.76E2,3.831E3,3.6375E2,1.7825E3,1.9125E2,4.77775E3,3.0225E2,1.2E2,5.6E1,3.24025E3,5.9075E2,3.535E2,1.025E1,1.61325E3,1.6925E2,1.37E2,5.425E1,4.683E3,9.475E1,2.7125E2,3.1E1,1.0675E2,1.325E1,4.575E1,1.025E1,2.661E3,5.7925E2,2.6575E2,3.25E2,3.4475E2,8.75E0,2E0,8.25E0,1.4335E3,1.7975E2,1.635E2,5.75E0,1.255E2,1.15E1,4.625E1,8E0,4.266E3,4.17E2,4.7E1,4.775E1,3E1,1E0,9.35E1,1.325E1,1.175E1,1.5E0,1.45E1,3.125E1,9E0,1.25E0,2.37525E3,2.8575E2,5.675E2,1.175E1,2.62E2,3.75E0,1.1775E2,2.0725E2,3.3175E2,1.3E1,3E0,5.75E0,1E0,1E0,5.5E0,2.75E0,1.2425E3,1.91E2,1.735E2,6.25E0,1.5825E2,5.25E0,4.5E0,1.25E0,1.19E2,6.5E0,8.25E0,3.25E0,4.4E1,2.25E0,6.5E0,1.5E0,4.237E3,2.9E1,3.6225E2,5.475E1,2.75E1,1.95E1,3.1E1,1.675E1,2.9E1,1E0,8.8E1,5.5E0,7E0,6.25E0,1.2E1,2.5E0,7.75E0,2.35E1],"tree_param":{"num_deleted":"0","num_feature":"145","num_nodes":"111","size_leaf_vector":"0"}},{"base_weights":[-9.2283815E-1,-1.0336819E0,-7.946775E-1,-1.0868689E0,-7.810212E-1,-8.206925E-1,-5.682384E-2,-1.1204331E0,-7.331544E-1,-8.272708E-1,-3.2384732E-1,-1.0592767E0,-7.483944E-1,-3.0575544E-1,4.793945E-1,-9.985074E-1,-1.1910018E0,-7.851178E-1,9.5259356E-1,-8.7880373E-1,-3.670196E-1,-3.8125184E-1,1.0222818E0,-1.2413517E0,-7.7521044E-1,-7.74868E-1,5.7972467E-1,-2.3109746E-1,-8.654439E-1,3.1651565E-1,1.1328701E0,-1.1766288E0,-8.7033534E-1,-1.2090346E0,-1.0097655E0,-8.3143103E-1,3.6558428E-1,2.991408E-8,1.1224337E0,-9.237608E-1,-5.21762E-1,-5.6231534E-1,1.9104981E-1,-4.9283323E-1,1.4552823E-1,-1.2573248E0,-4.877415E-1,-8.612898E-1,-2.2806093E-1,-7.520066E-1,-1.4431552E0,8.900286E-1,-6.792754E-1,-1.9014789E-1,-1.0779012E0,-1.0377717E0,3.287948E-1,1.5258156E-1,9.4501066E-1,1.2378938E0,1.853133E-1,-1.2071617E0,-5.637855E-1,-9.5334744E-1,-3.090323E-1,-1.2278919E0,-1.0454867E0,-1.0551715E0,2.4324088E-1,-8.6904186E-1,4.8035204E-1,-1.2382126E0,7.3511666E-1,1.1797048E0,3.6437523E-1,-9.712314E-1,-7.1549064E-1,-5.678623E-1,6.9579583E-1,-6.763773E-1,2.8278098E-1,5.72653E-1,-4.7172424E-1,-5.4952043E-1,6.912159E-1,-7.8143954E-2,1.0430121E0,-1.3019733E0,-1.0287571E0,-8.602404E-1,3.5584056E-1,-9.3186885E-1,-3.8526005E-1,-4.1928852E-1,9.897079E-1,-7.861333E-1,-3.7697545E-1,-1.496306E0,-1.0414046E0,1.039995E0,-7.799839E-2,-1.0030506E0,5.2105665E-1,-1.5328585E-1,-1.1330667E0,-6.369573E-1,-1.3755443E0,-1.9362664E-2,7.737865E-1,1.3437483E0,4.1764334E-1],"categories":[],"categories_nodes":[],"categories_segments":[],"categories_sizes":[],"default_left":[1,1,1,1,1,1,1,1,1,1,1,1,1,1,1,1,1,1,1,1,1,1,0,1,1,1,1,1,1,1,1,1,1,1,1,1,1,0,1,1,1,1,1,1,1,1,1,1,1,1,1,1,1,1,0,1,0,1,1,0,0,0,0,0,0,0,0,0,0,0,0,0,0,0,0,0,0,0,0,0,0,0,0,0,0,0,0,0,0,0,0,0,0,0,0,0,0,0,0,0,0,0,0,0,0,0,0,0,0,0,0],"id":1,"left_children":[1,3,5,7,9,11,13,15,17,19,21,23,25,27,29,31,33,35,37,39,41,43,-1,45,47,49,51,53,55,57,59,61,63,65,67,69,71,-1,73,75,77,79,81,83,85,87,89,91,93,95,97,99,101,103,-1,105,-1,107,109,-1,-1,-1,-1,-1,-1,-1,-1,-1,-1,-1,-1,-1,-1,-1,-1,-1,-1,-1,-1,-1,-1,-1,-1,-1,-1,-1,-1,-1,-1,-1,-1,-1,-1,-1,-1,-1,-1,-1,-1,-1,-1,-1,-1,-1,-1,-1,-1,-1,-1,-1,-1],"loss_changes":[1.5532617E2,7.831201E1,9.788745E1,5.6922363E1,2.1467285E1,8.421411E1,2.3483532E1,3.70166E1,3.79261E1,2.1803345E1,7.8143625E0,5.8190063E1,1.335476E2,4.8147497E0,5.5827694E0,3.6281372E1,7.9538574E0,2.2275436E1,2.126463E0,1.2972839E1,1.0532274E1,5.531123E0,0E0,7.7563477E0,2.096878E1,5.562549E1,2.9730806E1,3.514145E0,3.1730928E0,4.602542E0,8.4034824E-1,1.2060913E1,4.4161377E1,6.5756836E0,1.5055756E1,1.9986267E1,1.0775514E1,0E0,5.442238E-2,6.65271E0,5.785797E0,7.0456753E0,6.7301507E0,5.5396194E0,3.4955106E0,5.602417E0,5.3542514E0,1.2674774E1,1.495732E1,4.5666626E1,1.0402832E0,8.826988E0,6.472294E0,3.4244275E0,0E0,7.844162E-1,0E0,4.0452633E0,1.4024649E0,0E0,0E0,0E0,0E0,0E0,0E0,0E0,0E0,0E0,0E0,0E0,0E0,0E0,0E0,0E0,0E0,0E0,0E0,0E0,0E0,0E0,0E0,0E0,0E0,0E0,0E0,0E0,0E0,0E0,0E0,0E0,0E0,0E0,0E0,0E0,0E0,0E0,0E0,0E0,0E0,0E0,0E0,0E0,0E0,0E0,0E0,0E0,0E0,0E0,0E0,0E0,0E0],"parents":[2147483647,0,0,1,1,2,2,3,3,4,4,5,5,6,6,7,7,8,8,9,9,10,10,11,11,12,12,13,13,14,14,15,15,16,16,17,17,18,18,19,19,20,20,21,21,23,23,24,24,25,25,26,26,27,27,28,28,29,29,30,30,31,31,32,32,33,33,34,34,35,35,36,36,38,38,39,39,40,40,41,41,42,42,43,43,44,44,45,45,46,46,47,47,48,48,49,49,50,50,51,51,52,52,53,53,55,55,57,57,58,58],"right_children":[2,4,6,8,10,12,14,16,18,20,22,24,26,28,30,32,34,36,38,40,42,44,-1,46,48,50,52,54,56,58,60,62,64,66,68,70,72,-1,74,76,78,80,82,84,86,88,90,92,94,96,98,100,102,104,-1,106,-1,108,110,-1,-1,-1,-1,-1,-1,-1,-1,-1,-1,-1,-1,-1,-1,-1,-1,-1,-1,-1,-1,-1,-1,-1,-1,-1,-1,-1,-1,-1,-1,-1,-1,-1,-1,-1,-1,-1,-1,-1,-1,-1,-1,-1,-1,-1,-1,-1,-1,-1,-1,-1,-1],"split_conditions":[-9.536743E-7,9.808048E-1,-9.536743E-7,-9.536743E-7,-9.536743E-7,-9.044333E-1,-3.1797838E-1,-9.536743E-7,-9.536743E-7,-9.536743E-7,-9.536743E-7,-9.536743E-7,-9.536743E-7,-9.536743E-7,-9.536743E-7,-4.5100352E-1,-9.536743E-7,-9.536743E-7,-1.061775E0,-9.536743E-7,-9.536743E-7,-9.536743E-7,3.0668455E-1,-9.536743E-7,-9.536743E-7,-9.536743E-7,-9.536743E-7,-9.536743E-7,-9.536743E-7,-9.536743E-7,-9.536743E-7,-9.536743E-7,-9.536743E-7,-9.536743E-7,-9.536743E-7,-9.536743E-7,-1.1762052E0,8.974224E-9,7.8913414E-1,-9.536743E-7,-9.536743E-7,-9.536743E-7,1.1839185E0,-9.536743E-7,1.5901458E0,-9.536743E-7,-1.8341789E0,-9.536743E-7,-9.536743E-7,-9.536743E-7,-9.536743E-7,-9.536743E-7,-9.536743E-7,-9.536743E-7,-3.233704E-1,-1.4622808E0,9.8638445E-2,1.6201837E0,1.4689448E-1,3.7136817E-1,5.5593994E-2,-3.6214852E-1,-1.6913566E-1,-2.8600425E-1,-9.270969E-2,-3.6836758E-1,-3.1364602E-1,-3.1655145E-1,7.297227E-2,-2.6071256E-1,1.4410561E-1,-3.7146378E-1,2.2053501E-1,3.5391146E-1,1.0931257E-1,-2.9136944E-1,-2.146472E-1,-1.7035869E-1,2.0873876E-1,-2.029132E-1,8.483429E-2,1.717959E-1,-1.4151728E-1,-1.6485614E-1,2.0736477E-1,-2.3443187E-2,3.1290364E-1,-3.90592E-1,-3.0862713E-1,-2.5807214E-1,1.0675217E-1,-2.7956066E-1,-1.1557802E-1,-1.2578656E-1,2.9691237E-1,-2.3584E-1,-1.1309264E-1,-4.488918E-1,-3.1242138E-1,3.119985E-1,-2.3399519E-2,-3.0091518E-1,1.56317E-1,-4.5985755E-2,-3.3992E-1,-1.910872E-1,-4.126633E-1,-5.8087995E-3,2.3213595E-1,4.031245E-1,1.25293E-1],"split_indices":[100,0,83,139,142,0,0,81,126,144,105,81,76,136,99,0,142,111,0,139,90,94,0,34,19,64,34,111,93,142,139,83,144,144,107,116,0,0,0,94,112,41,0,110,0,91,0,139,93,139,99,93,143,125,0,0,0,0,0,0,0,0,0,0,0,0,0,0,0,0,0,0,0,0,0,0,0,0,0,0,0,0,0,0,0,0,0,0,0,0,0,0,0,0,0,0,0,0,0,0,0,0,0,0,0,0,0,0,0,0,0],"split_type":[0,0,0,0,0,0,0,0,0,0,0,0,0,0,0,0,0,0,0,0,0,0,0,0,0,0,0,0,0,0,0,0,0,0,0,0,0,0,0,0,0,0,0,0,0,0,0,0,0,0,0,0,0,0,0,0,0,0,0,0,0,0,0,0,0,0,0,0,0,0,0,0,0,0,0,0,0,0,0,0,0,0,0,0,0,0,0,0,0,0,0,0,0,0,0,0,0,0,0,0,0,0,0,0,0,0,0,0,0,0,0],"sum_hessian":[1.0990752E4,5.889751E3,5.101001E3,4.862795E3,1.0269562E3,4.9271685E3,1.7383263E2,4.4393726E3,4.2342255E2,9.318744E2,9.508182E1,1.1426761E3,3.7844922E3,1.19012566E2,5.482007E1,1.6330334E3,2.8063389E3,4.1127908E2,1.2143463E1,8.3722363E2,9.465081E1,9.188043E1,3.201383E0,6.942926E2,4.483836E2,3.710938E3,7.355406E1,1.0625226E2,1.27603035E1,4.507058E1,9.749488E0,6.7993866E2,9.530947E2,2.547222E3,2.5911707E2,3.9563318E2,1.5645914E1,1.988792E0,1.0154671E1,7.4218396E2,9.503966E1,7.0108734E1,2.4542076E1,7.587352E1,1.6006916E1,6.7922766E2,1.5064949E1,3.8693552E2,6.1448086E1,3.5902449E3,1.2069316E2,5.924508E1,1.4308982E1,1.025192E2,3.7330549E0,1.126569E1,1.4946129E0,3.6732258E1,8.338321E0,8.500875E0,1.2486122E0,6.467469E2,3.319181E1,8.296918E2,1.23402954E2,2.27805E3,2.6917172E2,2.5020801E2,8.909059E0,3.8493402E2,1.0699143E1,2.4896967E0,1.3156218E1,8.92423E0,1.2304415E0,6.0143646E2,1.4074748E2,9.20866E1,2.9530597E0,6.1947388E1,8.161343E0,1.5660982E1,8.881095E0,7.2918396E1,2.955123E0,1.3544313E1,2.4626024E0,5.6430054E2,1.1492713E2,1.0436692E1,4.628257E0,3.361398E2,5.07957E1,5.3675114E1,7.7729716E0,3.289788E3,3.0045673E2,1.04185234E2,1.650793E1,5.123364E1,8.01144E0,1.1398681E1,2.9103014E0,9.9780975E1,2.738227E0,6.4717793E0,4.7939105E0,2.9527994E1,7.2042656E0,3.8667076E0,4.471613E0],"tree_param":{"num_deleted":"0","num_feature":"145","num_nodes":"111","size_leaf_vector":"0"}},{"base_weights":[-7.076955E-1,-8.068052E-1,-5.9686744E-1,-8.762955E-1,-6.381022E-1,-5.694026E-1,-1.0929708E0,-8.812487E-1,9.5806265E-1,-6.0150564E-1,-1.0304483E0,-5.8994144E-1,-4.0144227E-2,-1.1374635E0,-7.0001996E-1,-9.0874857E-1,-6.027528E-1,4.6959978E-1,1.7271967E0,-6.56278E-1,-3.266706E-1,-1.0796999E0,-1.0746265E-2,-6.051205E-1,1.22140065E-1,-2.2831318E-1,3.724836E-1,-9.528222E-1,-1.2261331E0,-7.424539E-1,1.8585804E-1,-9.1940147E-1,-1.8360034E-1,-6.4388585E-1,7.072235E-1,1.4087552E-1,1.178124E0,-6.7701685E-1,1.16201965E-2,-3.6900294E-1,1.6629913E0,-1.1113597E0,-2.7171123E-1,-6.757942E-1,1.4542689E0,-6.131959E-1,5.0804687E-1,5.5120337E-1,-3.2395756E-1,-1.9339676E-1,-1.1400737E0,1.1588612E0,2.6154932E-1,-1.0418663E0,-2.2898534E-1,-1.2539715E0,-4.1115928E-1,-8.970089E-1,-4.5058718E-1,-9.548161E-1,-7.275921E-1,-1.035029E-2,-8.81335E-1,-6.847103E-1,6.854245E-1,-5.1895916E-1,1.1289614E0,3.5279706E-1,-4.0352446E-1,-7.345028E-1,-4.5959815E-1,-1.942338E-1,1.3258919E0,-3.965203E-1,7.756391E-1,-1.1455218E0,-3.2783285E-1,3.0384633E-1,-5.289946E-1,-1.0853177E0,1.353825E-1,-6.0247076E-1,-1.4273036E0,3.2436556E-1,1.4808754E0,6.930466E-1,-8.1367624E-1,-7.5123805E-1,4.064203E-1,-2.4377078E-1,4.010056E-1,1.3178037E-1,8.5784215E-1,-1.0630854E0,-1.0498948E-1,-4.3625996E-1,7.818088E-1,-8.65891E-1,-7.330694E-2,-6.1809355E-1,-1.1445751E0,-6.8875617E-1,7.38225E-1],"categories":[],"categories_nodes":[],"categories_segments":[],"categories_sizes":[],"default_left":[1,1,1,1,1,1,1,1,1,1,1,1,1,1,1,1,1,1,0,1,1,1,1,1,1,1,1,1,1,1,0,1,1,1,1,1,0,1,1,1,0,1,1,1,0,1,1,1,1,1,0,0,1,1,1,0,1,1,1,0,0,0,0,0,0,0,0,0,0,0,0,0,0,0,0,0,0,0,0,0,0,0,0,0,0,0,0,0,0,0,0,0,0,0,0,0,0,0,0,0,0,0,0],"id":2,"left_children":[1,3,5,7,9,11,13,15,17,19,21,23,25,27,29,31,33,35,-1,37,39,41,43,45,47,49,51,53,55,57,-1,59,61,63,65,67,-1,69,71,73,-1,75,77,79,-1,81,83,85,87,89,-1,-1,91,93,95,-1,97,99,101,-1,-1,-1,-1,-1,-1,-1,-1,-1,-1,-1,-1,-1,-1,-1,-1,-1,-1,-1,-1,-1,-1,-1,-1,-1,-1,-1,-1,-1,-1,-1,-1,-1,-1,-1,-1,-1,-1,-1,-1,-1,-1,-1,-1],"loss_changes":[1.11572754E2,6.2542236E1,6.5050415E1,3.5458496E1,2.1980347E1,4.9644287E1,3.6051636E0,2.855371E1,3.2232342E0,2.1494202E1,6.662277E0,4.761438E1,1.3421302E1,2.507904E0,1.1982803E0,2.6531738E1,1.901625E1,1.6835341E0,0E0,1.6650024E1,2.0965656E1,2.9405365E0,7.9323134E0,3.9026E1,1.7908815E1,3.5547605E0,4.422989E0,4.7458725E0,2.8469086E0,8.190317E-1,0E0,2.2442627E1,6.191103E0,1.8622131E1,6.2553596E0,8.9919865E-1,0E0,1.4227051E1,1.0312866E1,7.78561E0,0E0,2.8807068E0,1.06448E0,2.0034215E0,0E0,3.6476807E1,5.1599607E0,9.7768955E0,1.4674741E1,3.5536146E0,0E0,0E0,3.6607528E0,1.2517624E0,2.3844373E0,0E0,9.171909E-1,4.4701195E-1,3.7354732E0,0E0,0E0,0E0,0E0,0E0,0E0,0E0,0E0,0E0,0E0,0E0,0E0,0E0,0E0,0E0,0E0,0E0,0E0,0E0,0E0,0E0,0E0,0E0,0E0,0E0,0E0,0E0,0E0,0E0,0E0,0E0,0E0,0E0,0E0,0E0,0E0,0E0,0E0,0E0,0E0,0E0,0E0,0E0,0E0],"parents":[2147483647,0,0,1,1,2,2,3,3,4,4,5,5,6,6,7,7,8,8,9,9,10,10,11,11,12,12,13,13,14,14,15,15,16,16,17,17,19,19,20,20,21,21,22,22,23,23,24,24,25,25,26,26,27,27,28,28,29,29,31,31,32,32,33,33,34,34,35,35,37,37,38,38,39,39,41,41,42,42,43,43,45,45,46,46,47,47,48,48,49,49,52,52,53,53,54,54,56,56,57,57,58,58],"right_children":[2,4,6,8,10,12,14,16,18,20,22,24,26,28,30,32,34,36,-1,38,40,42,44,46,48,50,52,54,56,58,-1,60,62,64,66,68,-1,70,72,74,-1,76,78,80,-1,82,84,86,88,90,-1,-1,92,94,96,-1,98,100,102,-1,-1,-1,-1,-1,-1,-1,-1,-1,-1,-1,-1,-1,-1,-1,-1,-1,-1,-1,-1,-1,-1,-1,-1,-1,-1,-1,-1,-1,-1,-1,-1,-1,-1,-1,-1,-1,-1,-1,-1,-1,-1,-1,-1],"split_conditions":[-9.536743E-7,7.076026E-1,-9.536743E-7,-9.536743E-7,-9.536743E-7,-9.536743E-7,-9.536743E-7,-9.536743E-7,5.7600784E-1,-9.536743E-7,-9.536743E-7,-9.536743E-7,-3.1797838E-1,-1.9228624E0,-9.536743E-7,-9.536743E-7,-9.536743E-7,-9.536743E-7,5.1815903E-1,-9.536743E-7,-9.536743E-7,-9.536743E-7,-9.536743E-7,-9.536743E-7,5.3309655E-1,-9.536743E-7,-1.7494056E-1,-9.536743E-7,-9.536743E-7,-1.3364074E0,5.5757415E-2,-9.536743E-7,-9.536743E-7,-9.536743E-7,-9.3304086E-1,-9.536743E-7,3.534372E-1,-9.536743E-7,-9.536743E-7,-9.536743E-7,4.988974E-1,-9.536743E-7,8.978429E-1,1.1338553E0,4.362807E-1,-9.536743E-7,-9.536743E-7,-9.536743E-7,1.3341081E0,-9.536743E-7,-3.4202212E-1,3.4765837E-1,-9.536743E-7,-9.536743E-7,-9.536743E-7,-3.7619147E-1,-1.3292556E0,-1.9657738E0,-9.536743E-7,-2.8644484E-1,-2.1827765E-1,-3.105087E-3,-2.644005E-1,-2.054131E-1,2.0562737E-1,-1.5568775E-1,3.3868843E-1,1.05839126E-1,-1.2105734E-1,-2.2035085E-1,-1.3787945E-1,-5.8270145E-2,3.9776757E-1,-1.1895609E-1,2.3269175E-1,-3.4365654E-1,-9.834986E-2,9.1153905E-2,-1.586984E-1,-3.2559532E-1,4.0614754E-2,-1.8074124E-1,-4.281911E-1,9.730967E-2,4.4426262E-1,2.07914E-1,-2.4410288E-1,-2.2537142E-1,1.2192609E-1,-7.313123E-2,1.20301686E-1,3.9534114E-2,2.5735265E-1,-3.1892565E-1,-3.1496845E-2,-1.3087799E-1,2.3454265E-1,-2.597673E-1,-2.1992084E-2,-1.8542807E-1,-3.4337255E-1,-2.0662686E-1,2.2146751E-1],"split_indices":[100,0,18,79,135,83,139,139,0,94,120,65,0,0,132,83,112,139,0,117,123,103,90,63,0,102,0,142,114,0,0,95,138,126,0,95,0,99,99,116,0,102,0,0,0,67,133,138,0,141,0,0,99,115,93,0,0,0,96,0,0,0,0,0,0,0,0,0,0,0,0,0,0,0,0,0,0,0,0,0,0,0,0,0,0,0,0,0,0,0,0,0,0,0,0,0,0,0,0,0,0,0,0],"split_type":[0,0,0,0,0,0,0,0,0,0,0,0,0,0,0,0,0,0,0,0,0,0,0,0,0,0,0,0,0,0,0,0,0,0,0,0,0,0,0,0,0,0,0,0,0,0,0,0,0,0,0,0,0,0,0,0,0,0,0,0,0,0,0,0,0,0,0,0,0,0,0,0,0,0,0,0,0,0,0,0,0,0,0,0,0,0,0,0,0,0,0,0,0,0,0,0,0,0,0,0,0,0,0],"sum_hessian":[1.0200472E4,5.381608E3,4.8188643E3,3.8086116E3,1.5729961E3,4.5681157E3,2.5074823E2,3.7988733E3,9.738346E0,1.4411083E3,1.3188791E2,4.3973535E3,1.7076216E2,2.2354256E2,2.7205673E1,3.455409E3,3.4346436E2,6.9408784E0,2.7974672E0,1.2004756E3,2.4063269E2,1.25755104E2,6.132802E0,4.305721E3,9.1632545E1,1.1758641E2,5.3175755E1,7.633411E1,1.4720845E2,2.6116577E1,1.0890954E0,3.4051177E3,5.0291306E1,3.3350095E2,9.963392E0,5.5600758E0,1.3808028E0,1.164309E3,3.616653E1,2.3641719E2,4.215508E0,1.2065206E2,5.10304E0,4.588535E0,1.544267E0,4.2751562E3,3.056468E1,4.658795E1,4.5044594E1,1.14416855E2,3.169549E0,5.406245E0,4.7769512E1,6.758113E1,8.752978E0,1.4182524E2,5.383212E0,1.5719257E1,1.0397321E1,2.8710457E3,5.34072E2,4.1100693E1,9.190616E0,3.2403445E2,9.466514E0,2.490848E0,7.4725447E0,4.255476E0,1.3045999E0,9.189567E2,2.4535228E2,3.20057E1,4.160832E0,2.3150536E2,4.9118342E0,1.1516867E2,5.483389E0,1.5205358E0,3.5825043E0,2.824585E0,1.76395E0,4.221285E3,5.3871475E1,2.6831926E1,3.7327535E0,4.264804E1,3.9399123E0,2.840105E1,1.6643541E1,1.0602169E2,8.395166E0,4.023444E1,7.5350695E0,6.595267E1,1.628461E0,7.73519E0,1.0177882E0,1.628461E0,3.7547512E0,9.035867E0,6.6833897E0,9.012395E0,1.3849258E0],"tree_param":{"num_deleted":"0","num_feature":"145","num_nodes":"103","size_leaf_vector":"0"}},{"base_weights":[-5.4718363E-1,-7.318807E-1,-4.9725878E-1,-3.3353364E-1,-7.7763647E-1,-5.0808007E-1,5.875813E-1,-4.046612E-1,4.1928938E-1,-8.0678827E-1,-1.539699E-1,-5.397172E-1,-2.1087873E-1,7.962591E-1,-3.725523E-1,-5.00711E-1,3.3581007E-1,-1.3564895E-1,1.1504387E0,-8.411406E-1,-5.090654E-1,2.8897965E-1,-4.969746E-1,-5.7649934E-1,-2.1858358E-1,-3.3698127E-1,2.2748736E-1,9.0628755E-1,-2.0007057E-1,-6.641132E-1,5.4095024E-1,-5.535062E-1,4.6650585E-2,9.5243996E-1,-5.622986E-1,-7.895512E-1,4.4644502E-1,-8.6222625E-1,-6.399536E-1,-7.2175777E-1,-9.759697E-2,1.3435507E-1,9.435462E-1,-5.8577675E-1,1.6974436E0,-5.8644956E-1,2.3823857E-1,-2.720453E-1,6.8205214E-1,-3.7435278E-1,6.1686355E-1,1.5207486E-1,1.8235711E0,1.0066715E0,-2.589977E-1,-7.883388E-1,-1.8132132E-1,-5.873604E-1,1.2685642E-1,1.6395779E0,-3.0400416E-1,1.3183955E0,-6.843906E-1,-6.509598E-1,-3.5042576E-2,-9.7819173E-1,-2.7714396E-1,-8.835977E-1,-7.199464E-1,-4.271557E-2,-7.3661864E-1,-7.7596617E-1,3.930055E-1,-1.6496794E-1,1.3041525E0,4.4948827E-2,1.0224912E0,1.0709873E0,2.1222118E-1,-7.7891886E-1,2.2158845E-1,-6.086251E-1,-1.9563176E-1,-3.4070325E-1,6.6797316E-1,-3.2400754E-1,5.3163534E-1,3.6383558E-2,1.2713916E0,-4.247831E-1,3.1164235E-1,1.1299941E-1,1.1796247E0,-2.2847864E-1,4.3581927E-1,1.0781286E0,-5.1066643E-1,-4.754858E-2,-5.170444E-1],"categories":[],"categories_nodes":[],"categories_segments":[],"categories_sizes":[],"default_left":[1,1,1,1,1,1,1,1,1,1,1,1,1,1,1,1,1,1,0,1,1,1,1,1,1,1,1,1,0,1,0,1,1,1,1,1,0,1,1,1,1,1,1,1,0,1,1,1,1,1,1,1,0,1,1,0,0,0,0,0,0,0,0,0,0,0,0,0,0,0,0,0,0,0,0,0,0,0,0,0,0,0,0,0,0,0,0,0,0,0,0,0,0,0,0,0,0,0,0],"id":3,"left_children":[1,3,5,7,9,11,13,15,17,19,21,23,25,27,29,31,33,35,-1,37,39,41,43,45,47,49,51,53,-1,55,-1,57,59,61,63,65,-1,67,69,71,73,75,77,79,-1,81,83,85,87,89,91,93,-1,95,97,-1,-1,-1,-1,-1,-1,-1,-1,-1,-1,-1,-1,-1,-1,-1,-1,-1,-1,-1,-1,-1,-1,-1,-1,-1,-1,-1,-1,-1,-1,-1,-1,-1,-1,-1,-1,-1,-1,-1,-1,-1,-1,-1,-1],"loss_changes":[8.640503E1,3.6197876E1,8.729578E1,1.1298328E1,3.24812E1,6.888318E1,1.5054199E1,1.3709778E1,7.6347933E0,1.7092041E1,1.2498814E1,7.820471E1,3.9193726E1,6.84914E0,4.0431914E0,4.907837E0,1.2974121E1,4.6815624E0,0E0,5.9570312E0,1.5660107E1,3.52918E0,9.996875E0,4.8369873E1,3.3076977E1,1.983469E1,1.8822334E1,6.689247E0,0E0,5.1282597E-1,0E0,3.6251984E0,9.314688E0,9.101669E0,4.3400693E-1,2.815578E-1,0E0,3.5778809E0,8.595425E0,7.4560356E0,6.108691E0,2.3667893E0,4.0054226E-1,7.2122765E0,0E0,5.0821777E1,1.8263044E1,2.7130985E1,1.4627428E1,1.8462013E1,5.8531647E0,1.6578753E1,0E0,6.0587234E0,2.5664145E-1,0E0,0E0,0E0,0E0,0E0,0E0,0E0,0E0,0E0,0E0,0E0,0E0,0E0,0E0,0E0,0E0,0E0,0E0,0E0,0E0,0E0,0E0,0E0,0E0,0E0,0E0,0E0,0E0,0E0,0E0,0E0,0E0,0E0,0E0,0E0,0E0,0E0,0E0,0E0,0E0,0E0,0E0,0E0,0E0],"parents":[2147483647,0,0,1,1,2,2,3,3,4,4,5,5,6,6,7,7,8,8,9,9,10,10,11,11,12,12,13,13,14,14,15,15,16,16,17,17,19,19,20,20,21,21,22,22,23,23,24,24,25,25,26,26,27,27,29,29,31,31,32,32,33,33,34,34,35,35,37,37,38,38,39,39,40,40,41,41,42,42,43,43,45,45,46,46,47,47,48,48,49,49,50,50,51,51,53,53,54,54],"right_children":[2,4,6,8,10,12,14,16,18,20,22,24,26,28,30,32,34,36,-1,38,40,42,44,46,48,50,52,54,-1,56,-1,58,60,62,64,66,-1,68,70,72,74,76,78,80,-1,82,84,86,88,90,92,94,-1,96,98,-1,-1,-1,-1,-1,-1,-1,-1,-1,-1,-1,-1,-1,-1,-1,-1,-1,-1,-1,-1,-1,-1,-1,-1,-1,-1,-1,-1,-1,-1,-1,-1,-1,-1,-1,-1,-1,-1,-1,-1,-1,-1,-1,-1],"split_conditions":[-8.987118E-1,-1.9872295E0,-9.536743E-7,-9.536743E-7,-9.536743E-7,-9.536743E-7,-9.536743E-7,-9.536743E-7,-9.536743E-7,-9.536743E-7,-1.3979137E0,-9.536743E-7,-9.536743E-7,-9.536743E-7,-9.536743E-7,-9.536743E-7,-2.1059508E0,-2.0487356E0,3.451316E-1,-9.536743E-7,-1.061775E0,-9.536743E-7,-9.536743E-7,-9.536743E-7,-9.536743E-7,-9.536743E-7,-9.536743E-7,-9.536743E-7,-6.0021173E-2,-9.536743E-7,1.6228507E-1,-9.536743E-7,-2.1846216E0,-9.536743E-7,-9.536743E-7,-9.536743E-7,1.3393351E-1,-9.536743E-7,-1.769812E0,-9.536743E-7,-9.536743E-7,-9.536743E-7,-9.536743E-7,-9.536743E-7,5.092331E-1,-9.536743E-7,-3.351429E-1,-9.536743E-7,-6.0510337E-2,-9.536743E-7,-9.536743E-7,2.541728E-1,5.4707134E-1,-9.536743E-7,3.328436E-1,-2.3650165E-1,-5.43964E-2,-1.7620812E-1,3.8056925E-2,4.9187338E-1,-9.120125E-2,3.9551866E-1,-2.0531718E-1,-1.9528794E-1,-1.0512773E-2,-2.9345754E-1,-8.314319E-2,-2.6507932E-1,-2.1598393E-1,-1.2814672E-2,-2.209856E-1,-2.3278986E-1,1.1790165E-1,-4.9490385E-2,3.9124575E-1,1.3484648E-2,3.0674738E-1,3.2129622E-1,6.366636E-2,-2.3367567E-1,6.647654E-2,-1.8258753E-1,-5.868953E-2,-1.02210976E-1,2.0039196E-1,-9.7202264E-2,1.5949062E-1,1.0915068E-2,3.814175E-1,-1.2743494E-1,9.349271E-2,3.3899825E-2,3.538874E-1,-6.85436E-2,1.3074578E-1,3.2343858E-1,-1.5319994E-1,-1.4264575E-2,-1.5511334E-1],"split_indices":[0,0,76,133,83,144,34,144,81,139,0,139,90,144,143,134,0,0,0,142,0,140,107,70,21,122,119,134,0,144,0,87,0,96,98,34,0,59,0,113,111,123,97,99,0,21,0,91,0,59,100,0,0,128,0,0,0,0,0,0,0,0,0,0,0,0,0,0,0,0,0,0,0,0,0,0,0,0,0,0,0,0,0,0,0,0,0,0,0,0,0,0,0,0,0,0,0,0,0],"split_type":[0,0,0,0,0,0,0,0,0,0,0,0,0,0,0,0,0,0,0,0,0,0,0,0,0,0,0,0,0,0,0,0,0,0,0,0,0,0,0,0,0,0,0,0,0,0,0,0,0,0,0,0,0,0,0,0,0,0,0,0,0,0,0,0,0,0,0,0,0,0,0,0,0,0,0,0,0,0,0,0,0,0,0,0,0,0,0,0,0,0,0,0,0,0,0,0,0,0,0],"sum_hessian":[9.408946E3,1.9992085E3,7.4097373E3,2.0683186E2,1.7923767E3,7.337082E3,7.265571E1,1.8939966E2,1.7432213E1,1.712057E3,8.0319626E1,6.630453E3,7.0662885E2,5.9824074E1,1.2831633E1,1.6793929E2,2.1460365E1,1.037336E1,7.058852E0,1.5333126E3,1.7874443E2,3.512168E1,4.5197945E1,5.9483433E3,6.8210986E2,5.4894727E2,1.5768158E2,5.3955894E1,5.8681803E0,9.934015E0,2.8976178E0,1.5315561E2,1.4783676E1,1.2688268E1,8.772098E0,4.7175007E0,5.655859E0,1.3848829E3,1.4842973E2,1.1733738E2,6.1407043E1,2.9385391E1,5.736289E0,4.4144592E1,1.0533515E0,5.8768506E3,7.149234E1,6.445475E2,3.7562393E1,5.2883514E2,2.0112158E1,1.5161336E2,6.0682178E0,4.980181E1,4.1540847E0,7.3976707E0,2.5363443E0,1.4602618E2,7.129428E0,2.0040536E0,1.2779622E1,1.0528823E1,2.1594453E0,7.30851E0,1.463587E0,2.7836862E0,1.9338146E0,1.1994995E3,1.8538333E2,2.0878054E1,1.27551674E2,1.1218595E2,5.151431E0,5.943289E1,1.9741542E0,2.7652319E1,1.733073E0,4.4894977E0,1.2467912E0,3.565117E1,8.493425E0,5.560768E3,3.160828E2,3.0546726E1,4.0945614E1,6.059654E2,3.858203E1,1.8431236E1,1.9131157E1,4.9297525E2,3.585988E1,1.1244906E1,8.867251E0,6.484245E1,8.6770905E1,4.7838387E1,1.963425E0,2.9340901E0,1.2199942E0],"tree_param":{"num_deleted":"0","num_feature":"145","num_nodes":"99","size_leaf_vector":"0"}},{"base_weights":[-4.209836E-1,-5.1043546E-1,-3.2714316E-1,-6.6086704E-1,-4.3125033E-1,-3.0407408E-1,-8.1968457E-1,-6.7784166E-1,-7.0380636E-2,-3.977329E-1,-8.315293E-1,-2.881263E-1,-9.8173314E-1,-8.7116206E-1,-4.2874515E-1,-6.831193E-1,6.6949E-1,-1.6787028E-1,8.586838E-1,-4.3118164E-1,-1.0568318E-1,-8.483284E-1,-6.500627E-2,-3.1784847E-1,5.6370813E-3,-1.0112228E0,-2.457168E-1,-6.7318654E-1,-9.719029E-1,-5.883087E-1,-1.7337805E-1,-7.2130805E-1,-4.9628496E-1,3.2320297E-1,1.0664155E0,-2.5136352E-1,1.1837927E0,-4.6825382E-1,-1.0869506E-1,-7.5109296E-2,-8.569432E-1,-9.394938E-1,-6.441394E-1,4.18725E-1,-8.2176316E-1,-3.0740595E-1,-1.1270157E0,-6.644091E-2,6.358391E-1,-1.0349666E0,-1.767631E-1,6.530433E-1,-9.1704047E-1,-7.557568E-1,-1.4899316E-1,-1.0052401E0,-1.7873172E-1,-6.883359E-1,-8.003521E-2,-3.8030985E-1,7.0022225E-1,-7.699635E-1,-5.041887E-1,-5.8991647E-1,3.9173225E-1,1.2551128E-2,5.43749E-1,-3.5092297E-1,4.527542E-1,-5.042608E-1,-2.2736654E-1,-1.6231407E-1,1.259945E0,-4.87579E-2,-7.988701E-1,-1.0044211E0,2.8653625E-1,-9.6303636E-1,-1.762664E-1,-7.2925675E-1,6.359676E-1,6.290686E-1,-1.3444462E-1,-2.966358E-1,-1.0982639E0,-1.1960771E0,-3.9468434E-1,-9.665135E-2,1.210162E0,8.136428E-1,-1.4258933E-1,-1.0809109E0,-5.449898E-1,-3.1937516E-1,3.586744E-2,-7.800836E-1,5.2096527E-2,-3.318249E-1,6.362963E-1,-1.0179666E0,-4.5819452E-1,2.2289197E-1,-8.0554307E-1,-7.461985E-1,-3.2635072E-1,3.7384641E-4,-1.4028296E-1,-5.8492017E-1,5.140502E-1],"categories":[],"categories_nodes":[],"categories_segments":[],"categories_sizes":[],"default_left":[1,1,1,1,1,1,1,1,1,1,1,1,1,1,1,1,1,1,0,1,1,1,1,1,1,1,1,1,1,1,1,1,1,1,0,1,0,1,1,1,1,1,1,1,0,1,1,1,1,1,1,0,0,1,1,1,1,1,1,1,0,0,0,0,0,0,0,0,0,0,0,0,0,0,0,0,0,0,0,0,0,0,0,0,0,0,0,0,0,0,0,0,0,0,0,0,0,0,0,0,0,0,0,0,0,0,0,0,0],"id":4,"left_children":[1,3,5,7,9,11,13,15,17,19,21,23,25,27,29,31,33,35,-1,37,39,41,43,45,47,49,51,53,55,57,59,61,63,65,-1,67,-1,69,71,73,75,77,79,81,-1,83,85,87,89,91,93,-1,-1,95,97,99,101,103,105,107,-1,-1,-1,-1,-1,-1,-1,-1,-1,-1,-1,-1,-1,-1,-1,-1,-1,-1,-1,-1,-1,-1,-1,-1,-1,-1,-1,-1,-1,-1,-1,-1,-1,-1,-1,-1,-1,-1,-1,-1,-1,-1,-1,-1,-1,-1,-1,-1,-1],"loss_changes":[7.30564E1,5.2892212E1,4.815381E1,1.5364441E1,3.894641E1,4.3712067E1,3.4502487E0,1.1084656E1,4.136911E0,2.6361969E1,2.8457642E0,3.474109E1,1.7740936E0,2.6749496E0,8.790746E-1,1.0267517E1,5.262821E-1,4.8944545E0,0E0,2.8942566E1,6.3466754E0,3.496994E0,2.5091505E0,3.0183868E1,1.6692339E1,1.5858536E0,3.561821E0,2.4648457E0,2.6860657E0,6.7703533E-1,2.1964056E0,1.2650635E1,2.151167E1,3.2333833E-1,0E0,2.9060197E0,0E0,1.8748901E1,1.8649696E1,5.097148E0,2.112286E0,2.5285034E0,8.221746E0,5.8147216E-1,0E0,3.0069489E1,1.8372002E0,1.28376465E1,5.336096E0,1.3603821E0,1.2292188E-1,0E0,0E0,1.0468445E0,1.5534533E0,2.5616455E-1,1.5862006E0,5.74255E-3,1.7005693E-2,1.998897E0,0E0,0E0,0E0,0E0,0E0,0E0,0E0,0E0,0E0,0E0,0E0,0E0,0E0,0E0,0E0,0E0,0E0,0E0,0E0,0E0,0E0,0E0,0E0,0E0,0E0,0E0,0E0,0E0,0E0,0E0,0E0,0E0,0E0,0E0,0E0,0E0,0E0,0E0,0E0,0E0,0E0,0E0,0E0,0E0,0E0,0E0,0E0,0E0,0E0],"parents":[2147483647,0,0,1,1,2,2,3,3,4,4,5,5,6,6,7,7,8,8,9,9,10,10,11,11,12,12,13,13,14,14,15,15,16,16,17,17,19,19,20,20,21,21,22,22,23,23,24,24,25,25,26,26,27,27,28,28,29,29,30,30,31,31,32,32,33,33,35,35,37,37,38,38,39,39,40,40,41,41,42,42,43,43,45,45,46,46,47,47,48,48,49,49,50,50,53,53,54,54,55,55,56,56,57,57,58,58,59,59],"right_children":[2,4,6,8,10,12,14,16,18,20,22,24,26,28,30,32,34,36,-1,38,40,42,44,46,48,50,52,54,56,58,60,62,64,66,-1,68,-1,70,72,74,76,78,80,82,-1,84,86,88,90,92,94,-1,-1,96,98,100,102,104,106,108,-1,-1,-1,-1,-1,-1,-1,-1,-1,-1,-1,-1,-1,-1,-1,-1,-1,-1,-1,-1,-1,-1,-1,-1,-1,-1,-1,-1,-1,-1,-1,-1,-1,-1,-1,-1,-1,-1,-1,-1,-1,-1,-1,-1,-1,-1,-1,-1,-1],"split_conditions":[-9.536743E-7,-3.866365E-1,-9.536743E-7,-9.536743E-7,-9.536743E-7,-9.536743E-7,-9.536743E-7,-9.536743E-7,-9.536743E-7,-9.536743E-7,-9.536743E-7,-9.536743E-7,-9.536743E-7,-1.9228624E0,-1.3364074E0,-9.536743E-7,-9.536743E-7,-9.536743E-7,2.5760517E-1,-9.536743E-7,-9.536743E-7,9.5505804E-1,1.0051212E0,-9.536743E-7,-9.536743E-7,-9.536743E-7,1.4342346E0,-9.536743E-7,-9.536743E-7,-9.536743E-7,-9.536743E-7,-9.536743E-7,-9.536743E-7,-9.536743E-7,3.1992468E-1,-9.536743E-7,3.5513783E-1,-9.536743E-7,-9.536743E-7,-9.536743E-7,1.4399562E0,-9.536743E-7,-9.536743E-7,-9.536743E-7,-2.4652895E-1,-9.536743E-7,-9.536743E-7,-9.536743E-7,-9.536743E-7,-9.536743E-7,1.4342346E0,1.95913E-1,-2.7511215E-1,-9.536743E-7,-9.536743E-7,-9.536743E-7,-7.2277534E-1,-9.536743E-7,-1.9657738E0,-9.536743E-7,2.1006669E-1,-2.3098905E-1,-1.5125662E-1,-1.7697495E-1,1.1751968E-1,3.7653386E-3,1.631247E-1,-1.052769E-1,1.3582626E-1,-1.5127824E-1,-6.820996E-2,-4.8694223E-2,3.7798354E-1,-1.462737E-2,-2.3966104E-1,-3.0132633E-1,8.596088E-2,-2.8891093E-1,-5.2879922E-2,-2.1877703E-1,1.907903E-1,1.887206E-1,-4.033339E-2,-8.899075E-2,-3.2947916E-1,-3.5882315E-1,-1.18405305E-1,-2.8995408E-2,3.630486E-1,2.4409285E-1,-4.27768E-2,-3.242733E-1,-1.6349696E-1,-9.581255E-2,1.0760233E-2,-2.3402509E-1,1.5628958E-2,-9.9547476E-2,1.908889E-1,-3.0539E-1,-1.3745837E-1,6.68676E-2,-2.4166293E-1,-2.2385955E-1,-9.790522E-2,1.1215393E-4,-4.2084888E-2,-1.7547606E-1,1.5421507E-1],"split_indices":[100,0,18,44,135,64,139,79,138,41,40,144,123,0,0,95,97,119,0,142,104,0,0,77,90,122,0,142,114,95,96,99,143,142,0,144,0,144,103,131,0,115,120,97,0,66,133,65,93,133,0,0,0,115,93,121,0,98,0,94,0,0,0,0,0,0,0,0,0,0,0,0,0,0,0,0,0,0,0,0,0,0,0,0,0,0,0,0,0,0,0,0,0,0,0,0,0,0,0,0,0,0,0,0,0,0,0,0,0],"split_type":[0,0,0,0,0,0,0,0,0,0,0,0,0,0,0,0,0,0,0,0,0,0,0,0,0,0,0,0,0,0,0,0,0,0,0,0,0,0,0,0,0,0,0,0,0,0,0,0,0,0,0,0,0,0,0,0,0,0,0,0,0,0,0,0,0,0,0,0,0,0,0,0,0,0,0,0,0,0,0,0,0,0,0,0,0,0,0,0,0,0,0,0,0,0,0,0,0,0,0,0,0,0,0,0,0,0,0,0,0],"sum_hessian":[8.722103E3,4.463197E3,4.258906E3,1.5366349E3,2.926562E3,4.0699019E3,1.89004E2,1.4935521E3,4.308281E1,2.7022798E3,2.242821E2,3.9777168E3,9.218496E1,1.6592694E2,2.307705E1,1.4882156E3,5.336483E0,3.973283E1,3.3499777E0,2.4241619E3,2.781179E2,2.1936774E2,4.9143763E0,3.612166E3,3.6555087E2,8.827419E1,3.9107645E0,5.8549007E1,1.0737794E2,1.3400258E1,9.676792E0,1.2332744E3,2.5494116E2,3.8189816E0,1.5175014E0,3.8187965E1,1.5448656E0,2.1738142E3,2.5034775E2,2.6829895E2,9.818932E0,1.4916714E2,7.020058E1,3.2705026E0,1.6438736E0,3.5675063E3,4.465969E1,3.2883557E2,3.6715286E1,8.55983E1,2.675896E0,1.6837758E0,2.2269888E0,5.019984E1,8.349166E0,1.02790276E2,4.587665E0,1.0900749E1,2.4995086E0,8.280123E0,1.3966687E0,1.00541864E3,2.2785579E2,2.3092807E2,2.4013084E1,2.0244026E0,1.794579E0,3.3896717E1,4.2912483E0,1.890183E3,2.8363116E2,2.4175783E2,8.589908E0,2.599035E2,8.395456E0,8.804942E0,1.01399E0,1.4444965E2,4.717499E0,6.622729E1,3.973293E0,2.27009E0,1.0004125E0,3.5209321E3,4.6573986E1,4.0232395E1,4.4272957E0,3.221366E2,6.69898E0,2.9851545E1,6.8637395E0,7.7157326E1,8.440975E0,1.3011744E0,1.3747214E0,4.876574E1,1.4341042E0,7.2408047E0,1.1083614E0,9.961204E1,3.1782353E0,3.188845E0,1.39882E0,8.483305E0,2.417445E0,1.4962922E0,1.0032164E0,7.020072E0,1.260051E0],"tree_param":{"num_deleted":"0","num_feature":"145","num_nodes":"109","size_leaf_vector":"0"}},{"base_weights":[-3.205267E-1,-4.8519874E-1,-2.789573E-1,-2.7000287E-1,-5.531063E-1,-2.5327948E-1,-5.8362544E-1,-3.428423E-1,4.2742172E-1,-5.997155E-1,-2.1708886E-1,-2.2720726E-1,-5.6925756E-1,-6.077338E-1,6.4730805E-1,-4.324341E-1,1.5679732E-1,5.493006E-1,-9.7477657E-1,-5.815323E-1,-1.2168329E0,-3.4142673E-1,3.1750637E-1,-3.111662E-1,-1.3568613E-1,-5.8634764E-1,7.688428E-1,-6.194655E-1,7.424478E-1,1.1485779E0,6.618091E-3,-3.8812158E-1,-8.979035E-1,4.88127E-3,9.752179E-1,6.912259E-1,-3.3132693E-1,-5.502421E-1,-9.076927E-1,2.6693243E-1,-4.5493168E-1,4.7576034E-1,-5.584828E-1,-3.6928153E-1,-1.2358175E-1,-1.2290118E-1,-1.1600082E0,-6.197026E-1,-7.65092E-2,-6.2556624E-1,9.2190605E-1,-2.3947224E-1,2.230321E-1,-3.2978967E-1,-7.198435E-1,-9.6417665E-1,-4.1545764E-1,1.446761E-1,-7.169089E-1,8.959805E-1,1.4818689E-1,6.2590046E-3,-8.3489984E-1,-5.1814026E-1,-8.8323855E-1,-9.7179717E-1,3.9574715E-1,1.1170928E-1,1.178635E0,-4.96854E-1,9.5762855E-1,5.910543E-1,-8.5316545E-1,-8.3108354E-1,2.410714E-1,-4.1952056E-1,-1.0416909E-1,-9.81396E-2,-9.457205E-1,-1.08945526E-1,-1.0562619E0,-1.1877745E0,-1.4875284E-1,-6.3945144E-1,1.3851166E-1,-2.319291E-1,5.993626E-1,-6.4181936E-1,-1.5340202E-1],"categories":[],"categories_nodes":[],"categories_segments":[],"categories_sizes":[],"default_left":[1,1,1,1,1,1,1,1,1,1,1,1,1,1,1,1,1,1,0,1,0,1,1,1,1,1,0,1,0,0,1,1,1,1,0,1,1,1,1,1,1,1,1,1,1,1,1,1,1,1,0,0,0,0,0,0,0,0,0,0,0,0,0,0,0,0,0,0,0,0,0,0,0,0,0,0,0,0,0,0,0,0,0,0,0,0,0,0,0],"id":5,"left_children":[1,3,5,7,9,11,13,15,17,19,21,23,25,27,29,31,33,35,-1,37,-1,39,41,43,45,47,-1,49,-1,-1,51,53,55,57,-1,59,61,63,65,67,69,71,73,75,77,79,81,83,85,87,-1,-1,-1,-1,-1,-1,-1,-1,-1,-1,-1,-1,-1,-1,-1,-1,-1,-1,-1,-1,-1,-1,-1,-1,-1,-1,-1,-1,-1,-1,-1,-1,-1,-1,-1,-1,-1,-1,-1],"loss_changes":[5.5858948E1,2.3924438E1,5.096576E1,2.031955E1,1.9466492E1,4.952655E1,1.5441666E1,1.6187592E1,7.029099E0,1.1616333E1,1.0344103E1,4.2755554E1,1.0942123E1,8.346039E0,3.276249E0,5.955284E0,6.894126E0,4.678197E0,0E0,1.0407898E1,0E0,8.781464E0,4.365673E0,3.1613434E1,3.477924E1,7.6655426E0,0E0,5.223175E0,0E0,0E0,3.460127E-1,5.196396E0,4.2448425E-1,4.9274454E0,0E0,3.3120337E0,9.600816E-1,9.994202E0,8.073151E0,2.7482245E0,6.756653E0,4.425053E0,1.28697E0,2.9480377E1,1.4306614E1,3.4205776E1,7.430153E-1,6.460861E0,3.1843789E0,3.6831207E0,0E0,0E0,0E0,0E0,0E0,0E0,0E0,0E0,0E0,0E0,0E0,0E0,0E0,0E0,0E0,0E0,0E0,0E0,0E0,0E0,0E0,0E0,0E0,0E0,0E0,0E0,0E0,0E0,0E0,0E0,0E0,0E0,0E0,0E0,0E0,0E0,0E0,0E0,0E0],"parents":[2147483647,0,0,1,1,2,2,3,3,4,4,5,5,6,6,7,7,8,8,9,9,10,10,11,11,12,12,13,13,14,14,15,15,16,16,17,17,19,19,21,21,22,22,23,23,24,24,25,25,27,27,30,30,31,31,32,32,33,33,35,35,36,36,37,37,38,38,39,39,40,40,41,41,42,42,43,43,44,44,45,45,46,46,47,47,48,48,49,49],"right_children":[2,4,6,8,10,12,14,16,18,20,22,24,26,28,30,32,34,36,-1,38,-1,40,42,44,46,48,-1,50,-1,-1,52,54,56,58,-1,60,62,64,66,68,70,72,74,76,78,80,82,84,86,88,-1,-1,-1,-1,-1,-1,-1,-1,-1,-1,-1,-1,-1,-1,-1,-1,-1,-1,-1,-1,-1,-1,-1,-1,-1,-1,-1,-1,-1,-1,-1,-1,-1,-1,-1,-1,-1,-1,-1],"split_conditions":[-8.987118E-1,-1.6911411E0,-9.536743E-7,-1.8313181E0,-9.536743E-7,-9.536743E-7,-9.536743E-7,-9.536743E-7,-9.536743E-7,-9.536743E-7,-9.773826E-1,-9.536743E-7,-9.536743E-7,-9.536743E-7,6.33223E-1,-9.536743E-7,-9.536743E-7,-9.536743E-7,-2.92433E-1,-9.536743E-7,-3.6504987E-1,-1.4765844E0,-9.536743E-7,9.808048E-1,-9.536743E-7,-9.536743E-7,2.3065285E-1,1.8776518E0,2.2273435E-1,3.4457338E-1,1.3341081E0,-1.8913941E0,-9.536743E-7,-2.0773432E0,2.9256538E-1,-1.7912676E0,-9.536743E-7,-9.536743E-7,-9.536743E-7,-9.536743E-7,-9.536743E-7,-9.536743E-7,-9.536743E-7,-9.536743E-7,-9.536743E-7,-9.536743E-7,-9.536743E-7,-9.536743E-7,1.2411337E0,-9.536743E-7,2.7657184E-1,-7.184167E-2,6.690963E-2,-9.893691E-2,-2.1595307E-1,-2.89253E-1,-1.246373E-1,4.3402832E-2,-2.1507268E-1,2.6879415E-1,4.445607E-2,1.8777015E-3,-2.5046995E-1,-1.5544209E-1,-2.6497158E-1,-2.9153916E-1,1.1872415E-1,3.3512786E-2,3.5359052E-1,-1.4905621E-1,2.8728858E-1,1.7731631E-1,-2.5594965E-1,-2.4932507E-1,7.232142E-2,-1.2585618E-1,-3.125073E-2,-2.944188E-2,-2.8371617E-1,-3.268366E-2,-3.168786E-1,-3.5633236E-1,-4.4625852E-2,-1.9183545E-1,4.1553497E-2,-6.957873E-2,1.798088E-1,-1.9254582E-1,-4.6020605E-2],"split_indices":[0,0,135,0,139,136,65,19,138,76,0,100,76,76,0,70,93,137,0,136,0,0,93,0,67,21,0,0,0,0,0,0,98,0,0,0,99,135,125,94,116,120,117,95,102,7,102,22,0,132,0,0,0,0,0,0,0,0,0,0,0,0,0,0,0,0,0,0,0,0,0,0,0,0,0,0,0,0,0,0,0,0,0,0,0,0,0,0,0],"split_type":[0,0,0,0,0,0,0,0,0,0,0,0,0,0,0,0,0,0,0,0,0,0,0,0,0,0,0,0,0,0,0,0,0,0,0,0,0,0,0,0,0,0,0,0,0,0,0,0,0,0,0,0,0,0,0,0,0,0,0,0,0,0,0,0,0,0,0,0,0,0,0,0,0,0,0,0,0,0,0,0,0,0,0,0,0,0,0,0,0],"sum_hessian":[8.178947E3,1.6463721E3,6.5325747E3,3.9610632E2,1.2502657E3,6.026486E3,5.0608875E2,3.5910916E2,3.6997166E1,1.0972771E3,1.5298872E2,5.568715E3,4.5777094E2,4.9686374E2,9.225011E0,3.046212E2,5.4487972E1,3.4598156E1,2.3990102E0,1.0677582E3,2.9518875E1,1.2441355E2,2.8575167E1,2.9030957E3,2.6656191E3,4.5255276E2,5.218164E0,4.9312024E2,3.7435107E0,4.730888E0,4.494123E0,2.7981656E2,2.4804623E1,4.6805798E1,7.6821747E0,2.9981329E1,4.616829E0,9.7674164E2,9.101658E1,1.9350075E1,1.0506348E2,2.4589737E1,3.9854312E0,2.2156873E3,6.8740845E2,2.633865E3,3.1754293E1,4.2456137E2,2.799139E1,4.9176797E2,1.3522677E0,2.053025E0,2.4410982E0,2.3966641E2,4.0150154E1,2.0930851E1,3.8737712E0,3.988124E1,6.924557E0,2.1300116E1,8.681212E0,3.3551617E0,1.2616671E0,8.9319116E2,8.355045E1,8.699263E1,4.0239506E0,1.749412E1,1.8559566E0,1.0266482E2,2.3986545E0,2.3137619E1,1.4521174E0,2.9427083E0,1.042723E0,1.8622137E3,3.5347354E2,6.6786005E2,1.9548424E1,2.5961638E3,3.7701244E1,3.0735815E1,1.0184774E0,4.139364E2,1.0624961E1,2.3292107E1,4.6992846E0,4.75056E2,1.6711967E1],"tree_param":{"num_deleted":"0","num_feature":"145","num_nodes":"89","size_leaf_vector":"0"}},{"base_weights":[-2.4148983E-1,-2.5528628E-1,2.1677852E-1,-2.8262058E-1,-1.9158779E-2,2.6726022E-1,-4.712265E-1,-3.1809634E-1,-8.828057E-2,-5.3396948E-2,9.287691E-1,7.512615E-2,4.4669366E-1,-7.049226E-1,6.432536E-1,-3.5303253E-1,-1.5726036E-1,-1.1437018E-1,1.2163388E0,-8.63369E-2,9.85647E-1,-1.434359E-1,1.084759E0,1.687322E-1,-4.8993966E-1,3.0120718E-1,1.0947019E0,-2.4259229E-1,-9.803961E-1,-4.3590683E-1,-2.7383155E-1,-4.1359755E-1,-2.5803337E-2,-1.3598712E-1,7.8017145E-1,1.3826253E0,-7.528446E-1,-1.22531846E-1,9.407829E-1,1.2878584E0,-1.1021978E-1,3.089094E-1,-7.377835E-1,1.4574463E0,6.312687E-1,2.0259821E-1,-6.1297333E-1,-1.6827942E-1,-7.742862E-1,2.079167E-1,1.0546451E0,1.1865808E0,-2.6634672E-1,-4.6141708E-1,2.700684E-1,-1.0762819E0,-2.5364295E-1,-4.9677548E-1,-2.4259329E-1,-2.5900236E-1,-9.471116E-1,-4.483362E-1,1.0106692E0,-5.5852048E-2,1.2961941E0,-1.5499173E-1,7.2965205E-1,-6.543091E-1,9.99785E-1,7.798222E-1,2.2114322E0,-1.5673602E-1,7.5986093E-1,-5.661012E-2,1.1804202E0,-6.032193E-1,1.5350906E0,1.5473151E-1,-2.4444632E-1,1.5719776E0,2.2959733E-1,-1.0309631E0,9.3742603E-1,1.2246505E-1,5.742565E-1,9.60737E-2,-7.013985E-1,-9.525826E-1,-5.59334E-2,1.1515398E-1,7.5462145E-1,1.3258563E0,6.3042337E-1,1.2437822E0,1.4705813E-1,-6.825838E-1,6.4359136E-2],"categories":[],"categories_nodes":[],"categories_segments":[],"categories_sizes":[],"default_left":[1,1,1,1,1,1,1,1,1,1,1,1,1,1,0,1,1,1,1,1,1,1,1,1,1,1,1,1,1,1,1,1,1,1,1,1,0,1,1,1,1,0,0,1,1,1,0,1,1,1,1,1,0,1,0,0,0,0,0,0,0,0,0,0,0,0,0,0,0,0,0,0,0,0,0,0,0,0,0,0,0,0,0,0,0,0,0,0,0,0,0,0,0,0,0,0,0],"id":6,"left_children":[1,3,5,7,9,11,13,15,17,19,21,23,25,27,-1,29,31,33,35,37,39,41,43,45,47,49,51,53,55,57,59,61,63,65,67,69,-1,71,73,75,77,-1,-1,79,81,83,-1,85,87,89,91,93,-1,95,-1,-1,-1,-1,-1,-1,-1,-1,-1,-1,-1,-1,-1,-1,-1,-1,-1,-1,-1,-1,-1,-1,-1,-1,-1,-1,-1,-1,-1,-1,-1,-1,-1,-1,-1,-1,-1,-1,-1,-1,-1,-1,-1],"loss_changes":[4.9064056E1,4.856662E1,8.012962E0,4.6471497E1,2.5424484E1,7.282078E0,4.5906916E0,3.198993E1,3.562335E1,2.594397E1,4.7231445E0,5.5664268E0,9.995815E0,1.4953504E0,0E0,3.0628662E1,3.4344925E1,1.9887981E1,7.7619076E0,2.7374422E1,7.8573723E0,1.397861E0,3.1290283E0,2.4984555E0,1.2407165E0,6.1645136E0,2.7797546E0,8.4368825E-1,2.9834127E-1,2.6795807E1,2.3697235E1,1.7549557E1,2.6886024E1,1.6559414E1,8.30507E0,7.9077187E0,0E0,2.152264E1,6.059908E0,9.500383E0,2.4967495E-1,0E0,0E0,1.3809185E0,7.364036E0,2.512172E0,0E0,1.2386844E0,9.3020487E-1,4.0747576E0,2.8719616E-1,9.254055E-1,0E0,6.0924995E-1,0E0,0E0,0E0,0E0,0E0,0E0,0E0,0E0,0E0,0E0,0E0,0E0,0E0,0E0,0E0,0E0,0E0,0E0,0E0,0E0,0E0,0E0,0E0,0E0,0E0,0E0,0E0,0E0,0E0,0E0,0E0,0E0,0E0,0E0,0E0,0E0,0E0,0E0,0E0,0E0,0E0,0E0,0E0],"parents":[2147483647,0,0,1,1,2,2,3,3,4,4,5,5,6,6,7,7,8,8,9,9,10,10,11,11,12,12,13,13,15,15,16,16,17,17,18,18,19,19,20,20,21,21,22,22,23,23,24,24,25,25,26,26,27,27,28,28,29,29,30,30,31,31,32,32,33,33,34,34,35,35,37,37,38,38,39,39,40,40,43,43,44,44,45,45,47,47,48,48,49,49,50,50,51,51,53,53],"right_children":[2,4,6,8,10,12,14,16,18,20,22,24,26,28,-1,30,32,34,36,38,40,42,44,46,48,50,52,54,56,58,60,62,64,66,68,70,-1,72,74,76,78,-1,-1,80,82,84,-1,86,88,90,92,94,-1,96,-1,-1,-1,-1,-1,-1,-1,-1,-1,-1,-1,-1,-1,-1,-1,-1,-1,-1,-1,-1,-1,-1,-1,-1,-1,-1,-1,-1,-1,-1,-1,-1,-1,-1,-1,-1,-1,-1,-1,-1,-1,-1,-1],"split_conditions":[-9.536743E-7,-9.536743E-7,-9.536743E-7,-9.536743E-7,-9.536743E-7,-6.255096E-1,-9.536743E-7,-9.536743E-7,-9.536743E-7,-9.536743E-7,-1.1762052E0,-9.536743E-7,-9.536743E-7,-1.4622808E0,1.929761E-1,-9.536743E-7,-3.4372514E-1,-9.536743E-7,-9.536743E-7,-9.536743E-7,-9.536743E-7,-1.3478506E0,1.2543881E-1,-9.536743E-7,-1.8413309E0,-9.536743E-7,-9.536743E-7,-1.7555082E0,-9.536743E-7,-9.536743E-7,-9.536743E-7,-9.536743E-7,-9.536743E-7,-9.536743E-7,-1.0860913E0,6.689824E-1,-2.2585338E-1,-9.536743E-7,-1.061775E0,-1.3292556E0,-4.896237E-1,9.267282E-2,-2.2133505E-1,-9.536743E-7,3.1138796E-1,-9.536743E-7,-1.8389201E-1,-9.536743E-7,-9.536743E-7,-9.536743E-7,1.4689448E-1,-9.536743E-7,-7.990402E-2,-9.536743E-7,8.102053E-2,-3.228846E-1,-7.6092884E-2,-1.4903265E-1,-7.277799E-2,-7.770071E-2,-2.841335E-1,-1.3450088E-1,3.0320078E-1,-1.6755614E-2,3.8885823E-1,-4.649752E-2,2.1889563E-1,-1.9629274E-1,2.9993552E-1,2.3394667E-1,6.634297E-1,-4.7020808E-2,2.2795829E-1,-1.6983036E-2,3.5412607E-1,-1.8096578E-1,4.6052718E-1,4.6419457E-2,-7.33339E-2,4.715933E-1,6.88792E-2,-3.0928892E-1,2.8122783E-1,3.6739517E-2,1.7227694E-1,2.8822111E-2,-2.1041955E-1,-2.857748E-1,-1.678002E-2,3.4546196E-2,2.2638644E-1,3.977569E-1,1.8912701E-1,3.7313467E-1,4.411744E-2,-2.0477515E-1,1.9307742E-2],"split_indices":[83,139,136,99,111,0,93,94,117,116,0,138,99,0,0,100,0,112,39,126,90,0,0,111,0,142,135,0,95,95,64,111,123,110,0,0,0,115,0,0,0,0,0,50,0,95,0,99,96,140,0,137,0,98,0,0,0,0,0,0,0,0,0,0,0,0,0,0,0,0,0,0,0,0,0,0,0,0,0,0,0,0,0,0,0,0,0,0,0,0,0,0,0,0,0,0,0],"split_type":[0,0,0,0,0,0,0,0,0,0,0,0,0,0,0,0,0,0,0,0,0,0,0,0,0,0,0,0,0,0,0,0,0,0,0,0,0,0,0,0,0,0,0,0,0,0,0,0,0,0,0,0,0,0,0,0,0,0,0,0,0,0,0,0,0,0,0,0,0,0,0,0,0,0,0,0,0,0,0,0,0,0,0,0,0,0,0,0,0,0,0,0,0,0,0,0,0],"sum_hessian":[7.7505137E3,7.524429E3,2.260845E2,6.7435884E3,7.808408E2,2.111995E2,1.4885015E1,5.7020693E3,1.0415192E3,7.5453156E2,2.6309225E1,1.02675316E2,1.0852418E2,1.2608597E1,2.2764182E0,4.6835347E3,1.0185349E3,1.02199384E3,1.9525368E1,7.3223505E2,2.2296535E1,3.351688E0,2.2957537E1,8.86855E1,1.3989813E1,8.9822624E1,1.8701555E1,5.4098387E0,7.198758E0,2.2864917E3,2.3970427E3,3.4454208E2,6.7399286E2,9.9870764E2,2.3286163E1,1.8279623E1,1.245744E0,7.081607E2,2.4074356E1,1.7339548E1,4.956989E0,2.1759064E0,1.1757814E0,1.138625E1,1.1571287E1,8.571296E1,2.972539E0,7.3111076E0,6.678705E0,8.106156E1,8.761062E0,1.7639004E1,1.0625519E0,3.861533E0,1.5483059E0,5.934793E0,1.2639654E0,1.7377549E3,5.4873676E2,2.34674E3,5.030296E1,3.3700748E2,7.534585E0,6.599501E2,1.40427685E1,9.7805597E2,2.0651707E1,2.8288965E0,2.0457268E1,1.1706336E1,6.5732875E0,6.825263E2,2.5634375E1,4.811636E0,1.926272E1,1.8383242E0,1.5501224E1,1.6154568E0,3.3415322E0,1.0158422E1,1.2278268E0,1.4315407E0,1.0139747E1,7.160396E1,1.4109007E1,5.4355955E0,1.8755122E0,5.089434E0,1.5892712E0,7.0337585E1,1.0723975E1,4.0478354E0,4.713226E0,1.6532768E1,1.1062347E0,2.5082164E0,1.3533165E0],"tree_param":{"num_deleted":"0","num_feature":"145","num_nodes":"97","size_leaf_vector":"0"}},{"base_weights":[-1.795639E-1,-3.3241242E-1,-1.4696987E-1,-1.512017E-1,-4.0216976E-1,-5.6090582E-2,-2.1777284E-1,-2.038495E-1,2.9939175E-1,-3.8135627E-1,-1.1144131E0,-4.1259553E-2,-9.7192043E-1,-2.3892374E-1,1.9297385E-1,2.0237178E-1,-2.8474167E-1,1.6806085E-1,1.3079569E0,-3.9337063E-1,7.2357994E-1,-2.006967E-1,4.839171E-2,-1.0402863E0,-2.2698794E-1,-2.6308358E-1,6.087974E-4,3.8869116E-1,-1.1114803E-1,1.4042477E-1,1.3800277E0,-2.2470845E-1,-6.513182E-1,2.7947227E-2,1.0680128E0,-3.6492553E-1,-7.7847785E-1,1.0672126E0,-1.236931E-1,-1.1843039E-1,-4.5504037E-1,8.082791E-2,-7.29188E-1,-1.0818431E0,1.1682153E-4,-2.9202417E-1,-4.3492373E-2,-5.5703048E-2,1.2647624E0,2.894061E-1,1.4229802E0,-1.8500246E-1,7.823016E-1,2.5483552E-1,-4.6875504E-1,-2.557214E-1,6.5229475E-1,-7.6278156E-1,2.8152883E-1,-8.984218E-2,7.443996E-1,-1.9892435E-1,1.5243151E0,-3.3449483E-1,-7.7050835E-1,-8.5317194E-1,3.5619798E-1,1.1953297E0,2.1455844E-1,-1.9373095E-1,2.4247016E-1,-3.9540333E-1,-9.356923E-1,1.0292655E-1,-1.0363259E0,-8.014291E-1,-3.276079E-1,-1.1024384E0,-2.0780542E-1,-3.6331525E-1,-1.8713175E-1,-8.795348E-2,1.069462E0,-9.602857E-2,8.47401E-1,7.102711E-1,2.0274575E0,2.2216378E-1,1.5942013E0,-2.7172887E-1,3.7305477E-1],"categories":[],"categories_nodes":[],"categories_segments":[],"categories_sizes":[],"default_left":[1,1,1,1,1,1,1,1,1,1,0,1,1,1,1,1,1,1,0,1,1,1,1,1,0,1,1,1,1,1,0,1,1,1,1,1,1,1,0,1,1,1,1,1,0,1,1,1,1,1,0,1,0,0,0,0,0,0,0,0,0,0,0,0,0,0,0,0,0,0,0,0,0,0,0,0,0,0,0,0,0,0,0,0,0,0,0,0,0,0,0],"id":7,"left_children":[1,3,5,7,9,11,13,15,17,19,-1,21,23,25,27,29,31,33,-1,35,37,39,41,43,-1,45,47,49,51,53,-1,55,57,59,61,63,65,67,-1,69,71,73,75,77,-1,79,81,83,85,87,-1,89,-1,-1,-1,-1,-1,-1,-1,-1,-1,-1,-1,-1,-1,-1,-1,-1,-1,-1,-1,-1,-1,-1,-1,-1,-1,-1,-1,-1,-1,-1,-1,-1,-1,-1,-1,-1,-1,-1,-1],"loss_changes":[3.6887802E1,1.6401749E1,3.9320526E1,8.686402E0,1.35060425E1,3.6337288E1,2.9893051E1,1.0774873E1,4.872179E0,1.2425827E1,0E0,3.7696297E1,1.9352226E0,1.8910889E1,1.0090456E1,3.8000565E0,5.848318E0,4.4038334E0,0E0,9.633957E0,3.0987763E0,1.9805946E1,4.264417E1,1.6764946E0,0E0,1.8851501E1,2.1454515E1,1.0157644E1,4.5573406E0,3.8219872E0,0E0,6.574641E0,4.145756E0,2.7210746E0,3.0260592E0,1.017141E1,5.507145E0,5.468178E-1,0E0,1.9573734E1,6.2692184E0,4.0143093E1,1.701786E0,4.4204712E-1,0E0,1.9543015E1,1.725627E1,1.0589499E1,3.9954205E0,7.9955277E0,0E0,3.1299288E0,0E0,0E0,0E0,0E0,0E0,0E0,0E0,0E0,0E0,0E0,0E0,0E0,0E0,0E0,0E0,0E0,0E0,0E0,0E0,0E0,0E0,0E0,0E0,0E0,0E0,0E0,0E0,0E0,0E0,0E0,0E0,0E0,0E0,0E0,0E0,0E0,0E0,0E0,0E0],"parents":[2147483647,0,0,1,1,2,2,3,3,4,4,5,5,6,6,7,7,8,8,9,9,11,11,12,12,13,13,14,14,15,15,16,16,17,17,19,19,20,20,21,21,22,22,23,23,25,25,26,26,27,27,28,28,29,29,31,31,32,32,33,33,34,34,35,35,36,36,37,37,39,39,40,40,41,41,42,42,43,43,45,45,46,46,47,47,48,48,49,49,51,51],"right_children":[2,4,6,8,10,12,14,16,18,20,-1,22,24,26,28,30,32,34,-1,36,38,40,42,44,-1,46,48,50,52,54,-1,56,58,60,62,64,66,68,-1,70,72,74,76,78,-1,80,82,84,86,88,-1,90,-1,-1,-1,-1,-1,-1,-1,-1,-1,-1,-1,-1,-1,-1,-1,-1,-1,-1,-1,-1,-1,-1,-1,-1,-1,-1,-1,-1,-1,-1,-1,-1,-1,-1,-1,-1,-1,-1,-1],"split_conditions":[-9.5020545E-1,-1.6911411E0,-9.536743E-7,-1.8313181E0,-9.536743E-7,-9.536743E-7,-9.536743E-7,-2.1388495E0,-9.536743E-7,-9.536743E-7,-3.3432394E-1,6.2502176E-2,-9.536743E-7,-9.536743E-7,5.68856E-1,-9.536743E-7,-9.536743E-7,-9.536743E-7,3.923871E-1,-9.536743E-7,-9.536743E-7,-1.5062414E-1,-9.536743E-7,-9.536743E-7,-6.8096384E-2,-9.536743E-7,-9.536743E-7,-9.536743E-7,-9.536743E-7,-9.536743E-7,4.1400832E-1,-9.536743E-7,-9.536743E-7,-9.536743E-7,-9.536743E-7,-9.536743E-7,-9.536743E-7,-9.536743E-7,-3.7107933E-2,-9.536743E-7,-9.536743E-7,-9.536743E-7,-9.536743E-7,-9.536743E-7,3.504646E-5,-9.536743E-7,-9.536743E-7,-9.536743E-7,-9.536743E-7,-9.536743E-7,4.2689407E-1,-9.536743E-7,2.3469049E-1,7.645066E-2,-1.4062652E-1,-7.671642E-2,1.9568844E-1,-2.2883448E-1,8.445865E-2,-2.6952654E-2,2.2331989E-1,-5.9677307E-2,4.5729455E-1,-1.0034845E-1,-2.3115252E-1,-2.5595158E-1,1.068594E-1,3.5859892E-1,6.436753E-2,-5.8119286E-2,7.2741054E-2,-1.18621E-1,-2.8070772E-1,3.0877966E-2,-3.108978E-1,-2.4042873E-1,-9.8282374E-2,-3.3073154E-1,-6.234163E-2,-1.0899458E-1,-5.6139525E-2,-2.6386045E-2,3.208386E-1,-2.8808571E-2,2.542203E-1,2.1308134E-1,6.0823727E-1,6.664914E-2,4.7826043E-1,-8.1518665E-2,1.1191644E-1],"split_indices":[0,0,81,0,76,5,21,0,96,55,0,0,133,142,0,119,96,135,0,136,138,0,64,123,0,139,127,137,134,95,0,106,143,142,23,135,125,96,0,95,13,16,99,102,0,100,118,107,100,103,0,143,0,0,0,0,0,0,0,0,0,0,0,0,0,0,0,0,0,0,0,0,0,0,0,0,0,0,0,0,0,0,0,0,0,0,0,0,0,0,0],"split_type":[0,0,0,0,0,0,0,0,0,0,0,0,0,0,0,0,0,0,0,0,0,0,0,0,0,0,0,0,0,0,0,0,0,0,0,0,0,0,0,0,0,0,0,0,0,0,0,0,0,0,0,0,0,0,0,0,0,0,0,0,0,0,0,0,0,0,0,0,0,0,0,0,0,0,0,0,0,0,0,0,0,0,0,0,0,0,0,0,0,0,0],"sum_hessian":[7.4131035E3,1.3013354E3,6.111768E3,3.6259058E2,9.387448E2,2.677215E3,3.434553E3,3.2514758E2,3.744298E1,9.135831E2,2.5161726E1,2.6355793E3,4.163575E1,3.2667537E3,1.6779926E2,5.3746033E1,2.7140155E2,3.4161285E1,3.2816982E0,9.043933E2,9.189808E0,9.4814514E2,1.6874342E3,3.777269E1,3.8630588E0,2.96736E3,2.9939355E2,1.019265E2,6.5872765E1,5.2123474E1,1.622556E0,2.345955E2,3.6806065E1,3.0451363E1,3.7099216E0,8.440007E2,6.039263E1,6.353431E0,2.8363771E0,7.175292E2,2.3061598E2,1.6207229E3,6.671127E1,3.6283585E1,1.4891067E0,2.621531E3,3.4582913E2,2.8754095E2,1.1852602E1,9.416689E1,7.7596006E0,6.1575718E1,4.2970443E0,4.437166E1,7.7518167E0,2.272672E2,7.3283043E0,3.304046E1,3.7656078E0,2.6902946E1,3.548417E0,1.1317192E0,2.5782022E0,7.8679266E2,5.7207996E1,5.6895382E1,3.497251E0,5.174095E0,1.1793358E0,5.940467E2,1.2348245E2,2.0678207E2,2.3833912E1,1.5901752E3,3.0547712E1,5.5696274E1,1.1014998E1,3.5193005E1,1.0905809E0,1.559285E3,1.062246E3,3.3343E2,1.2399131E1,2.761059E2,1.1435048E1,7.9813204E0,3.8712819E0,9.066477E1,3.502121E0,5.3737564E1,7.838153E0],"tree_param":{"num_deleted":"0","num_feature":"145","num_nodes":"91","size_leaf_vector":"0"}},{"base_weights":[-1.3280122E-1,-1.5639025E-1,7.1929865E-2,-1.6575682E-1,3.5902637E-1,3.6033228E-2,9.0095776E-1,-1.8158716E-1,1.1620612E-1,1.4450961E0,2.856724E-1,1.1153542E-3,8.3999467E-1,1.0122845E0,-5.944083E-1,-2.0538528E-1,2.2039048E-2,2.7386041E-2,4.7954825E-1,6.691159E-2,6.719021E-1,-3.4547254E-2,8.568014E-1,1.6485603E-1,1.2126405E0,1.1544112E0,2.2086793E-1,-2.3158167E-1,5.897591E-3,-2.1919038E-2,1.1892408E0,1.991759E-1,-4.3849134E-1,6.152512E-1,-2.759306E-1,3.6471602E-1,-4.9522403E-1,1.4297423E0,3.3418065E-1,-7.543976E-2,4.223633E-1,1.1367269E0,-3.1591807E-2,8.590628E-1,-1.8530439E-1,2.0388074E0,5.3788763E-1,3.7558866E-1,1.3739512E0,-5.820389E-1,8.7267506E-1,-2.6776198E-1,-3.0230759E-2,-2.5561798E-1,1.4263344E-1,-6.1938033E-2,8.2619464E-1,2.475167E0,9.66037E-1,2.5441602E-2,7.717473E-1,-5.0983304E-1,9.525459E-3,7.0413446E-1,-4.5258626E-1,-7.291893E-1,4.9995318E-1,2.7440444E-1,1.0273833E0,-6.3883173E-1,2.5927332E-1,1.5593336E0,3.4728146E-1,2.297736E-1,1.4217781E0,-2.4351257E-1,1.8052615E-2,3.3979875E-1,1.5392357E0,1.223503E0,-4.577725E-2,-3.74313E-1,9.6216327E-1,2.6798102E-1,1.1350602E0,-8.237318E-1,1.6692702E-1,1.0966727E0,-9.009648E-2,1.3245238E0,-3.4504977E-1,1.4831887E0,3.223119E-1],"categories":[],"categories_nodes":[],"categories_segments":[],"categories_sizes":[],"default_left":[1,1,1,1,1,1,1,1,1,0,1,1,1,1,0,1,1,1,1,1,1,1,1,1,1,1,1,1,1,1,1,1,1,1,1,1,1,1,1,1,1,1,1,1,1,0,1,1,1,0,0,0,0,0,0,0,0,0,0,0,0,0,0,0,0,0,0,0,0,0,0,0,0,0,0,0,0,0,0,0,0,0,0,0,0,0,0,0,0,0,0,0,0],"id":8,"left_children":[1,3,5,7,9,11,13,15,17,-1,19,21,23,25,-1,27,29,31,33,35,37,39,41,43,45,47,49,51,53,55,57,59,61,63,65,67,69,71,73,75,77,79,81,83,85,-1,87,89,91,-1,-1,-1,-1,-1,-1,-1,-1,-1,-1,-1,-1,-1,-1,-1,-1,-1,-1,-1,-1,-1,-1,-1,-1,-1,-1,-1,-1,-1,-1,-1,-1,-1,-1,-1,-1,-1,-1,-1,-1,-1,-1,-1,-1],"loss_changes":[3.45968E1,3.1062347E1,2.2006512E1,2.8177017E1,8.743889E0,1.9955326E1,5.711485E0,2.8949234E1,1.0828098E1,0E0,9.157157E0,2.0850399E1,7.2442284E0,2.999937E0,0E0,2.9602158E1,3.2141254E1,2.177662E1,6.928748E0,1.200624E1,9.573189E0,1.2287857E1,6.8341923E0,2.9985461E0,9.443815E0,3.6380157E0,3.4606853E0,3.4654755E1,2.1167004E1,2.0557924E1,4.13459E0,1.9744354E1,2.3483896E0,5.652649E0,4.137843E0,2.5160737E0,2.8622222E0,1.1138573E0,2.906188E0,9.478375E0,4.4598064E0,2.1918182E0,2.9222817E0,3.636682E-1,2.0684583E0,0E0,4.227639E0,5.051546E0,1.655983E0,0E0,0E0,0E0,0E0,0E0,0E0,0E0,0E0,0E0,0E0,0E0,0E0,0E0,0E0,0E0,0E0,0E0,0E0,0E0,0E0,0E0,0E0,0E0,0E0,0E0,0E0,0E0,0E0,0E0,0E0,0E0,0E0,0E0,0E0,0E0,0E0,0E0,0E0,0E0,0E0,0E0,0E0,0E0,0E0],"parents":[2147483647,0,0,1,1,2,2,3,3,4,4,5,5,6,6,7,7,8,8,10,10,11,11,12,12,13,13,15,15,16,16,17,17,18,18,19,19,20,20,21,21,22,22,23,23,24,24,25,25,26,26,27,27,28,28,29,29,30,30,31,31,32,32,33,33,34,34,35,35,36,36,37,37,38,38,39,39,40,40,41,41,42,42,43,43,44,44,46,46,47,47,48,48],"right_children":[2,4,6,8,10,12,14,16,18,-1,20,22,24,26,-1,28,30,32,34,36,38,40,42,44,46,48,50,52,54,56,58,60,62,64,66,68,70,72,74,76,78,80,82,84,86,-1,88,90,92,-1,-1,-1,-1,-1,-1,-1,-1,-1,-1,-1,-1,-1,-1,-1,-1,-1,-1,-1,-1,-1,-1,-1,-1,-1,-1,-1,-1,-1,-1,-1,-1,-1,-1,-1,-1,-1,-1,-1,-1,-1,-1,-1,-1],"split_conditions":[-9.536743E-7,-9.536743E-7,-9.536743E-7,-9.536743E-7,-7.113323E-1,-9.536743E-7,-9.536743E-7,-9.536743E-7,9.5505804E-1,4.3352887E-1,-9.536743E-7,-9.536743E-7,-2.2786455E-1,1.284045E0,-1.783225E-1,-9.536743E-7,-9.536743E-7,4.5442575E-1,-9.536743E-7,5.8315974E-1,8.6208344E-1,-9.536743E-7,8.8926065E-1,-1.3335466E0,5.68856E-1,-6.755729E-1,1.5915762E0,-9.536743E-7,-3.480163E-1,-9.536743E-7,-1.5666983E0,6.8223685E-2,-9.536743E-7,-9.536743E-7,1.3698677E0,-9.536743E-7,-9.536743E-7,-9.536743E-7,-9.536743E-7,-2.564721E-1,-9.536743E-7,-9.536743E-7,-9.536743E-7,-1.8413309E0,-9.158764E-1,6.1164224E-1,-9.536743E-7,-1.3349771E0,-9.536743E-7,-1.7461167E-1,2.6180252E-1,-8.03286E-2,-9.069228E-3,-7.66854E-2,4.2790033E-2,-1.858141E-2,2.478584E-1,7.4255013E-1,2.898111E-1,7.632481E-3,2.315242E-1,-1.5294991E-1,2.8576378E-3,2.1124035E-1,-1.3577588E-1,-2.187568E-1,1.4998595E-1,8.232133E-2,3.0821502E-1,-1.9164953E-1,7.7782E-2,4.6780008E-1,1.0418444E-1,6.893208E-2,4.2653343E-1,-7.305378E-2,5.4157847E-3,1.01939626E-1,4.6177074E-1,3.6705092E-1,-1.3733176E-2,-1.1229391E-1,2.88649E-1,8.039431E-2,3.4051806E-1,-2.4711955E-1,5.007811E-2,3.290018E-1,-2.7028946E-2,3.9735717E-1,-1.0351493E-1,4.4495663E-1,9.6693575E-2],"split_indices":[144,22,122,91,0,123,78,142,0,0,90,119,0,0,0,143,106,0,134,0,0,59,0,0,0,0,0,139,0,107,0,0,94,141,0,136,95,97,111,0,121,48,90,0,0,0,81,0,39,0,0,0,0,0,0,0,0,0,0,0,0,0,0,0,0,0,0,0,0,0,0,0,0,0,0,0,0,0,0,0,0,0,0,0,0,0,0,0,0,0,0,0,0],"split_type":[0,0,0,0,0,0,0,0,0,0,0,0,0,0,0,0,0,0,0,0,0,0,0,0,0,0,0,0,0,0,0,0,0,0,0,0,0,0,0,0,0,0,0,0,0,0,0,0,0,0,0,0,0,0,0,0,0,0,0,0,0,0,0,0,0,0,0,0,0,0,0,0,0,0,0,0,0,0,0,0,0,0,0,0,0,0,0,0,0,0,0,0,0],"sum_hessian":[7.160449E3,6.420875E3,7.3957404E2,6.3069385E3,1.13936554E2,7.0987994E2,2.9694107E1,5.9720063E3,3.3493222E2,6.02537E0,1.0791119E2,6.8129126E2,2.8588644E1,2.793729E1,1.7568172E0,5.3470767E3,6.2493E2,2.7000424E2,6.492798E1,6.9640175E1,3.8271008E1,6.549542E2,2.633704E1,1.0680576E1,1.7908068E1,2.329516E1,4.64213E0,4.757154E3,5.899228E2,6.031943E2,2.1735731E1,1.9768239E2,7.232187E1,5.519855E1,9.729428E0,4.5752777E1,2.3887402E1,1.080078E1,2.7470226E1,6.019187E2,5.303553E1,1.9814213E1,6.5228267E0,3.093752E0,7.5868244E0,7.1419315E0,1.0766136E1,5.718713E0,1.7576447E1,2.1279385E0,2.5141916E0,4.0322737E3,7.2488007E2,2.0224588E2,3.8767688E2,5.768997E2,2.6294554E1,1.7225386E0,2.0013193E1,1.5246472E2,4.5217655E1,6.2268353E1,1.0053515E1,5.127148E1,3.9270735E0,6.179593E0,3.5498352E0,4.1509716E1,4.2430587E0,2.0196577E1,3.6908257E0,9.25253E0,1.5482506E0,2.6169296E1,1.3009298E0,2.1457286E2,3.8734586E2,5.059923E1,2.4362972E0,1.8427284E1,1.3869286E0,5.3136253E0,1.2092013E0,1.612132E0,1.4816198E0,2.2215698E0,5.365255E0,5.3020205E0,5.4641156E0,2.106669E0,3.6120439E0,1.5550774E1,2.0256732E0],"tree_param":{"num_deleted":"0","num_feature":"145","num_nodes":"93","size_leaf_vector":"0"}},{"base_weights":[-9.6626416E-2,-9.8730996E-2,1.86362E0,-1.05444975E-1,4.569369E-1,2.0716226E0,6.469462E-1,-8.8396E-2,-3.387433E-1,7.660882E-1,8.5361615E-2,-1.1591328E-1,5.7541166E-2,-3.5284367E-1,4.6863142E-1,8.660815E-1,-2.1117795E-1,-2.8625056E-1,5.763686E-1,-9.7885005E-2,-3.5643092E-1,8.540194E-2,-5.679874E-1,1.2090231E-1,-3.7880266E-1,9.5437515E-1,-7.4219406E-1,9.708588E-1,-3.1148836E-1,-4.066271E-1,2.706523E-1,7.371424E-1,-4.4931656E-1,-1.01514824E-1,9.5446837E-1,-3.881774E-1,2.7939484E-1,6.624004E-2,8.8738036E-1,-4.044477E-1,-1.0500171E0,3.2835558E-1,-9.701529E-1,-8.57107E-1,-3.480217E-1,1.1134791E0,1.7356128E-1,1.0535159E0,-6.659322E-1,-2.759251E-1,-9.23481E-1,8.5806584E-1,1.1749035E-1],"categories":[],"categories_nodes":[],"categories_segments":[],"categories_sizes":[],"default_left":[1,1,1,1,1,0,0,1,1,1,1,1,1,1,1,1,0,1,1,1,1,1,1,1,1,1,0,1,0,1,0,1,0,0,0,0,0,0,0,0,0,0,0,0,0,0,0,0,0,0,0,0,0],"id":9,"left_children":[1,3,5,7,9,-1,-1,11,13,15,17,19,21,23,25,27,-1,29,31,33,35,37,39,41,43,45,-1,47,-1,49,-1,51,-1,-1,-1,-1,-1,-1,-1,-1,-1,-1,-1,-1,-1,-1,-1,-1,-1,-1,-1,-1,-1],"loss_changes":[2.8959694E1,2.6046043E1,5.656376E-1,2.735978E1,9.512863E0,0E0,0E0,2.5782299E1,5.5000877E0,4.618252E0,7.2797995E0,2.3382912E1,1.7806068E1,5.7167664E0,5.691723E0,5.4069195E0,0E0,1.642754E0,3.155972E0,1.9293282E1,7.702244E0,1.4945183E1,3.0106297E0,5.9122076E0,6.14167E0,6.123233E-1,0E0,5.87434E0,0E0,1.0421653E0,0E0,1.0371761E0,0E0,0E0,0E0,0E0,0E0,0E0,0E0,0E0,0E0,0E0,0E0,0E0,0E0,0E0,0E0,0E0,0E0,0E0,0E0,0E0,0E0],"parents":[2147483647,0,0,1,1,2,2,3,3,4,4,7,7,8,8,9,9,10,10,11,11,12,12,13,13,14,14,15,15,17,17,18,18,19,19,20,20,21,21,22,22,23,23,24,24,25,25,27,27,29,29,31,31],"right_children":[2,4,6,8,10,-1,-1,12,14,16,18,20,22,24,26,28,-1,30,32,34,36,38,40,42,44,46,-1,48,-1,50,-1,52,-1,-1,-1,-1,-1,-1,-1,-1,-1,-1,-1,-1,-1,-1,-1,-1,-1,-1,-1,-1,-1],"split_conditions":[-9.536743E-7,-9.536743E-7,-9.536743E-7,-9.536743E-7,5.3309655E-1,6.214868E-1,1.9408387E-1,-9.536743E-7,-9.536743E-7,-9.536743E-7,1.3341081E0,-9.536743E-7,-9.536743E-7,-1.7912676E0,-9.536743E-7,-9.536743E-7,-6.335339E-2,-9.536743E-7,-9.536743E-7,-9.536743E-7,-9.536743E-7,-9.536743E-7,-9.536743E-7,-9.536743E-7,-1.1619014E0,-9.536743E-7,-2.2265823E-1,-9.536743E-7,-9.344651E-2,-9.536743E-7,8.119569E-2,-9.536743E-7,-1.3479498E-1,-3.0454447E-2,2.8634053E-1,-1.1645322E-1,8.381845E-2,1.9872013E-2,2.6621413E-1,-1.21334314E-1,-3.1500515E-1,9.850668E-2,-2.9104587E-1,-2.571321E-1,-1.0440651E-1,3.3404374E-1,5.2068386E-2,3.160548E-1,-1.9977966E-1,-8.277753E-2,-2.770443E-1,2.5741976E-1,3.5247106E-2],"split_indices":[88,65,139,135,0,0,0,99,11,136,0,136,128,0,64,138,0,140,143,20,125,117,90,96,0,94,0,120,0,96,0,98,0,0,0,0,0,0,0,0,0,0,0,0,0,0,0,0,0,0,0,0,0],"split_type":[0,0,0,0,0,0,0,0,0,0,0,0,0,0,0,0,0,0,0,0,0,0,0,0,0,0,0,0,0,0,0,0,0,0,0,0,0,0,0,0,0,0,0,0,0,0,0,0,0,0,0,0,0],"sum_hessian":[6.9740815E3,6.9675503E3,6.5309463E0,6.885169E3,8.238131E1,4.977329E0,1.5536177E0,6.417565E3,4.67604E2,4.4388374E1,3.7992935E1,5.399638E3,1.0179268E3,4.60131E2,7.4729805E0,4.0371372E1,4.017003E0,2.1863129E1,1.6129808E1,5.024433E3,3.752051E2,9.753487E2,4.257814E1,2.3713171E1,4.3641785E2,5.4845543E0,1.9884266E0,3.723393E1,3.137445E0,1.8199158E1,3.6639705E0,1.4187299E1,1.9425092E0,5.0080625E3,1.6370453E1,3.5773315E2,1.747197E1,9.5364557E2,2.1703123E1,3.3165154E1,9.412989E0,2.0512054E1,3.201115E0,2.4764118E1,4.1165372E2,4.20223E0,1.2823242E0,3.578324E1,1.4506843E0,1.5750122E1,2.4490356E0,1.1548822E1,2.6384768E0],"tree_param":{"num_deleted":"0","num_feature":"145","num_nodes":"53","size_leaf_vector":"0"}},{"base_weights":[-6.990796E-2,-8.086294E-2,2.63845E-1,-8.4920354E-2,8.094453E-1,2.1452661E-1,6.511013E-1,-8.0473736E-2,-8.704119E-1,9.2362463E-1,-4.7070497E-1,1.7790423E-1,9.1476697E-1,2.2952767E-1,9.385419E-1,-2.221639E-1,-5.4454546E-2,-9.337737E-1,7.7142306E-2,1.064609E0,-3.313182E-1,2.0366976E-1,-4.3627053E-1,1.0935421E0,1.8924843E-1,5.748556E-1,-5.602188E-1,6.306476E-1,1.71722E0,-2.4800561E-1,2.575096E-1,-6.432209E-2,6.4134413E-1,-9.7970766E-1,7.49551E-2,1.1980336E0,-3.8832757E-1,1.4752045E-1,4.9364984E-1,-7.9115915E-1,1.5236471E-2,3.078831E-1,1.1475542E0,-7.500842E-1,-1.3591546E-1,7.576179E-1,-2.3585986E-3,-3.3618405E-1,-1.5392768E-1,3.571376E-1,-7.157909E-1,-7.3029295E-2,5.903465E-1,2.3437151E-1,8.749814E-1,-1.0253549E0,-2.5006366E-1,1.3007764E0,1.2234485E-1,6.9854975E-2,4.2617434E-1,-2.7620247E-1,6.621966E-1,-4.1048113E-1,6.0299563E-1,3.2861207E-2,8.4461164E-1,8.7614447E-1,3.1845275E-1],"categories":[],"categories_nodes":[],"categories_segments":[],"categories_sizes":[],"default_left":[1,1,1,1,1,1,1,1,1,1,0,1,1,1,1,1,1,1,0,1,0,1,1,0,0,1,1,1,0,1,1,1,1,1,0,1,0,1,1,0,1,1,0,0,0,1,0,0,0,0,0,0,0,0,0,0,0,0,0,0,0,0,0,0,0,0,0,0,0],"id":10,"left_children":[1,3,5,7,9,11,13,15,17,19,-1,21,23,25,27,29,31,33,-1,35,-1,37,39,-1,-1,41,43,45,-1,47,49,51,53,55,-1,57,-1,59,61,-1,63,65,-1,-1,-1,67,-1,-1,-1,-1,-1,-1,-1,-1,-1,-1,-1,-1,-1,-1,-1,-1,-1,-1,-1,-1,-1,-1,-1],"loss_changes":[2.5045658E1,2.4009586E1,4.0190563E0,2.2976501E1,4.8433647E0,4.828727E0,2.7057858E0,2.418089E1,2.29591E0,5.311863E0,0E0,3.035522E0,1.0164618E0,3.3483982E0,2.2759438E0,1.2679852E1,3.8115837E1,1.6856728E0,0E0,5.3961334E0,0E0,2.8480902E0,1.2643644E0,0E0,0E0,9.026222E-1,2.1082723E-1,9.3575954E-1,0E0,7.9640083E0,5.348306E0,3.1217548E1,7.176857E0,8.543892E-1,0E0,2.4426117E0,0E0,3.2536826E0,3.903666E0,0E0,1.3536476E0,1.0009971E0,0E0,0E0,0E0,2.249713E-1,0E0,0E0,0E0,0E0,0E0,0E0,0E0,0E0,0E0,0E0,0E0,0E0,0E0,0E0,0E0,0E0,0E0,0E0,0E0,0E0,0E0,0E0,0E0],"parents":[2147483647,0,0,1,1,2,2,3,3,4,4,5,5,6,6,7,7,8,8,9,9,11,11,12,12,13,13,14,14,15,15,16,16,17,17,19,19,21,21,22,22,25,25,26,26,27,27,29,29,30,30,31,31,32,32,33,33,35,35,37,37,38,38,40,40,41,41,45,45],"right_children":[2,4,6,8,10,12,14,16,18,20,-1,22,24,26,28,30,32,34,-1,36,-1,38,40,-1,-1,42,44,46,-1,48,50,52,54,56,-1,58,-1,60,62,-1,64,66,-1,-1,-1,68,-1,-1,-1,-1,-1,-1,-1,-1,-1,-1,-1,-1,-1,-1,-1,-1,-1,-1,-1,-1,-1,-1,-1],"split_conditions":[-9.536743E-7,-9.536743E-7,-9.536743E-7,-9.536743E-7,-9.536743E-7,1.6416395E0,-4.324086E-1,-9.559269E-1,-9.536743E-7,-9.536743E-7,-1.412115E-1,-9.536743E-7,-9.536743E-7,-1.1404457E0,-9.536743E-7,-9.536743E-7,-9.536743E-7,-9.536743E-7,2.3142692E-2,-9.536743E-7,-9.939546E-2,-9.536743E-7,-9.536743E-7,3.2806265E-1,5.677453E-2,-9.536743E-7,-7.542436E-1,-9.536743E-7,5.15166E-1,-9.536743E-7,-9.536743E-7,-9.536743E-7,-3.351429E-1,-9.536743E-7,2.248653E-2,-9.536743E-7,-1.1649828E-1,-9.536743E-7,-1.9557612E0,-2.3734775E-1,-1.0117116E0,-1.6696855E0,3.4426627E-1,-2.2502528E-1,-4.077464E-2,-9.536743E-7,-7.075796E-4,-1.00855224E-1,-4.6178307E-2,1.0714128E-1,-2.1473728E-1,-2.190879E-2,1.7710397E-1,7.031146E-2,2.6249444E-1,-3.0760646E-1,-7.50191E-2,3.9023292E-1,3.6703456E-2,2.0956494E-2,1.278523E-1,-8.2860745E-2,1.9865899E-1,-1.2314434E-1,1.808987E-1,9.858362E-3,2.5338352E-1,2.6284334E-1,9.553583E-2],"split_indices":[83,63,141,7,137,0,0,0,134,134,0,105,143,0,43,19,70,129,0,140,0,95,59,0,0,97,0,95,0,81,140,76,0,140,0,142,0,99,0,0,0,0,0,0,0,59,0,0,0,0,0,0,0,0,0,0,0,0,0,0,0,0,0,0,0,0,0,0,0],"split_type":[0,0,0,0,0,0,0,0,0,0,0,0,0,0,0,0,0,0,0,0,0,0,0,0,0,0,0,0,0,0,0,0,0,0,0,0,0,0,0,0,0,0,0,0,0,0,0,0,0,0,0,0,0,0,0,0,0,0,0,0,0,0,0,0,0,0,0,0,0],"sum_hessian":[6.84325E3,6.626502E3,2.1674792E2,6.597341E3,2.9161533E1,1.9364105E2,2.3106863E1,6.5613E3,3.604064E1,2.7029242E1,2.1322927E0,1.8520876E2,8.432307E0,1.0096862E1,1.3010001E1,1.01678033E3,5.5445195E3,3.379533E1,2.2453108E0,2.443572E1,2.5935214E0,1.7839328E2,6.8154745E0,6.3583016E0,2.0740058E0,7.214374E0,2.8824875E0,1.0620487E1,2.3895135E0,9.652612E2,5.1519093E1,5.467884E3,7.663587E1,3.2350952E1,1.4443784E0,2.2541182E1,1.8945378E0,1.507182E2,2.767508E1,3.3948379E0,3.420637E0,5.9692936E0,1.2450806E0,1.4609474E0,1.4215403E0,8.68214E0,1.9383469E0,4.9692465E2,4.6833658E2,4.730951E1,4.209582E0,5.396991E3,7.08924E1,2.8680489E1,4.7955383E1,3.0064787E1,2.2861636E0,2.03849E1,2.1562827E0,1.1884485E2,3.1873352E1,4.8560243E0,2.2819056E1,2.1586964E0,1.2619404E0,4.6485715E0,1.3207221E0,6.0533695E0,2.6287713E0],"tree_param":{"num_deleted":"0","num_feature":"145","num_nodes":"69","size_leaf_vector":"0"}},{"base_weights":[-5.024736E-2,-4.5782425E-2,-8.4291756E-1,-5.6094278E-2,2.6232204E-1,-8.839934E-1,1.6963466E-1,-6.7060016E-2,2.5596297E-1,3.605473E-1,-9.1969335E-1,-9.6223485E-1,-1.3579787E-1,-5.994881E-2,-4.611363E-1,4.1856292E-1,-3.6985037E-1,4.0764725E-1,-3.937689E-1,-1.0071919E0,3.6167525E-2,-9.841327E-1,-1.6144761E-1,-1.19289644E-1,-2.9869175E-3,-2.204269E-1,-5.993807E-1,3.041942E-1,8.875021E-1,-4.399833E-1,6.085235E-1,3.4610268E-1,9.380169E-1,3.71075E-1,-6.9114166E-1,-1.0492122E0,-3.348267E-1,-1.008123E0,-1.828984E-1,-1.632014E-1,4.3781407E-2,4.8437268E-3,-7.573968E-1,-3.1715286E-1,2.85327E-1,-6.5831673E-1,4.0595224E-1,1.9837587E-1,8.5759455E-1,1.0923929E0,-8.994589E-1,-6.7556983E-1,-2.1048318E-1,-2.722333E-1,1.3966281E0,2.8832442E-1,8.2999426E-1,-3.450973E-1,1.1761342E0,1.1488765E0,-3.8069466E-1,-7.945839E-1,-2.9064792E-1,-1.033281E0,-2.0030537E-1],"categories":[],"categories_nodes":[],"categories_segments":[],"categories_sizes":[],"default_left":[1,1,1,1,1,1,0,1,1,1,1,1,0,1,1,1,1,1,1,1,0,1,0,1,1,1,1,1,1,1,1,1,1,1,1,0,0,1,0,0,0,0,0,0,0,0,0,0,0,0,0,0,0,0,0,0,0,0,0,0,0,0,0,0,0],"id":11,"left_children":[1,3,5,7,9,11,-1,13,15,17,19,21,-1,23,25,27,29,31,33,35,-1,37,-1,39,41,43,45,47,49,51,53,55,57,59,61,-1,-1,63,-1,-1,-1,-1,-1,-1,-1,-1,-1,-1,-1,-1,-1,-1,-1,-1,-1,-1,-1,-1,-1,-1,-1,-1,-1,-1,-1],"loss_changes":[2.3793146E1,2.129179E1,1.7162495E0,2.2194399E1,2.5532574E1,1.9973679E0,0E0,1.7519836E1,2.2563402E1,7.3059864E0,1.4528112E0,4.153347E-1,0E0,2.0793882E1,3.5563202E0,9.130022E0,3.4204936E0,5.8704185E0,3.0605521E0,8.801556E-2,0E0,4.2453003E-1,0E0,2.1582283E1,1.8552454E1,2.1459548E0,4.4043484E0,8.170289E0,1.3373667E1,2.2072716E0,2.8047945E0,4.559561E0,6.256506E0,2.8360064E0,1.5129375E-1,0E0,0E0,4.1360474E-1,0E0,0E0,0E0,0E0,0E0,0E0,0E0,0E0,0E0,0E0,0E0,0E0,0E0,0E0,0E0,0E0,0E0,0E0,0E0,0E0,0E0,0E0,0E0,0E0,0E0,0E0,0E0],"parents":[2147483647,0,0,1,1,2,2,3,3,4,4,5,5,7,7,8,8,9,9,10,10,11,11,13,13,14,14,15,15,16,16,17,17,18,18,19,19,21,21,23,23,24,24,25,25,26,26,27,27,28,28,29,29,30,30,31,31,32,32,33,33,34,34,37,37],"right_children":[2,4,6,8,10,12,-1,14,16,18,20,22,-1,24,26,28,30,32,34,36,-1,38,-1,40,42,44,46,48,50,52,54,56,58,60,62,-1,-1,64,-1,-1,-1,-1,-1,-1,-1,-1,-1,-1,-1,-1,-1,-1,-1,-1,-1,-1,-1,-1,-1,-1,-1,-1,-1,-1,-1],"split_conditions":[-9.536743E-7,-9.536743E-7,-9.536743E-7,-9.536743E-7,-9.536743E-7,-9.536743E-7,5.0890397E-2,-9.536743E-7,-9.536743E-7,-9.536743E-7,1.4270828E0,-9.536743E-7,-4.0739365E-2,-9.536743E-7,-1.9228624E0,-9.536743E-7,-9.536743E-7,-9.536743E-7,-9.536743E-7,-9.536743E-7,1.0850258E-2,-9.536743E-7,-4.8434287E-2,9.808048E-1,-9.536743E-7,-9.536743E-7,-9.536743E-7,-9.536743E-7,-9.536743E-7,5.391991E-2,2.9708415E-1,1.412779E0,-9.7595227E-1,-4.1095293E-1,9.6220994E-1,-3.1476367E-1,-1.0044802E-1,-9.536743E-7,-5.486952E-2,-4.8960425E-2,1.3134423E-2,1.453118E-3,-2.2721906E-1,-9.514586E-2,8.5598096E-2,-1.9749503E-1,1.2178568E-1,5.951276E-2,2.5727838E-1,3.277179E-1,-2.6983768E-1,-2.0267096E-1,-6.314496E-2,-8.166999E-2,4.1898847E-1,8.649733E-2,2.4899828E-1,-1.0352919E-1,3.5284027E-1,3.4466296E-1,-1.142084E-1,-2.3837519E-1,-8.719438E-2,-3.099843E-1,-6.0091615E-2],"split_indices":[77,116,126,112,96,133,0,18,98,136,0,105,0,100,0,90,50,94,100,91,0,102,0,0,5,142,114,139,133,0,0,0,0,0,0,0,0,116,0,0,0,0,0,0,0,0,0,0,0,0,0,0,0,0,0,0,0,0,0,0,0,0,0,0,0],"split_type":[0,0,0,0,0,0,0,0,0,0,0,0,0,0,0,0,0,0,0,0,0,0,0,0,0,0,0,0,0,0,0,0,0,0,0,0,0,0,0,0,0,0,0,0,0,0,0,0,0,0,0,0,0,0,0,0,0,0,0,0,0,0,0,0,0],"sum_hessian":[6.732612E3,6.6959526E3,3.665905E1,6.479897E3,2.1605568E2,3.535191E1,1.3071421E0,6.2606807E3,2.1921625E2,2.0012067E2,1.5935018E1,3.1746038E1,3.6058698E0,6.1508394E3,1.0984141E2,1.7426862E2,4.4947624E1,1.8879196E2,1.1328703E1,1.4549473E1,1.3855454E0,3.0678173E1,1.067865E0,3.0119768E3,3.1388628E3,4.1017216E1,6.8824196E1,1.4142534E2,3.2843277E1,4.245463E1,2.4929917E0,1.7064297E2,1.8148996E1,3.1021407E0,8.2265625E0,1.3166157E1,1.3833156E0,2.9535614E1,1.1425596E0,2.37298E3,6.3899664E2,3.1075999E3,3.126277E1,3.474509E1,6.272125E0,6.533898E1,3.4852173E0,1.1986403E2,2.1561316E1,2.9813574E1,3.0297024E0,1.999041E1,2.246422E1,1.4864085E0,1.0065833E0,1.5386662E2,1.6776342E1,2.7705255E0,1.537847E1,1.2650529E0,1.8370879E0,5.755883E0,2.4706793E0,2.8372892E1,1.1627219E0],"tree_param":{"num_deleted":"0","num_feature":"145","num_nodes":"65","size_leaf_vector":"0"}},{"base_weights":[-3.6764316E-2,-3.168635E-2,-5.417679E-1,-1.8022532E-2,-2.3003066E-1,-3.4154847E-1,-8.541781E-1,-1.4188263E-2,-7.5635684E-1,-3.3095366E-1,-1.3955124E-2,-3.91048E-1,8.3207726E-1,2.366758E-2,-9.927318E-1,-9.194598E-3,-5.710441E-1,-8.635218E-1,-9.250395E-2,-1.2325725E-1,-4.527356E-1,3.3917922E-1,-2.3043008E-1,-4.436799E-1,3.845026E-1,-6.137388E-1,4.330566E-1,-1.0317101E0,-3.213616E-1,-2.6534202E-2,1.8851691E-1,-6.2068725E-1,5.6601785E-2,-9.1536725E-1,-9.327511E-2,1.4588621E-1,-3.962517E-1,-1.665031E-1,9.975898E-1,-4.7686505E-1,2.509661E-1,2.1279049E-1,1.4699682E0,-3.2216704E-1,7.008088E-1,-5.03514E-1,1.2540443E-1,-1.0776848E0,-3.4192786E-1,-2.2458147E-2,-7.283742E-1,5.7839125E-1,6.994452E-2,-6.584777E-1,2.6122916E-1,-7.675187E-1,7.249997E-1,-1.0055397E0,-3.171111E-1,3.2313138E-3,2.4918604E-1,-9.2540696E-2,-7.280598E-1,1.1215503E0,3.1380543E-1,-5.140921E-1,-7.2682254E-2,-2.8978002E-1,1.0411785E0,1.301953E-1,1.7517805E0,-4.0648445E-1,3.340721E-1,1.234149E0,1.24488585E-1,-5.3649575E-1,2.8530034E-1],"categories":[],"categories_nodes":[],"categories_segments":[],"categories_sizes":[],"default_left":[1,1,1,1,1,1,1,1,1,1,1,1,0,1,1,1,1,1,1,1,1,1,1,1,0,0,0,1,0,1,1,1,1,1,0,1,0,1,1,1,1,1,0,1,1,1,0,0,0,0,0,0,0,0,0,0,0,0,0,0,0,0,0,0,0,0,0,0,0,0,0,0,0,0,0,0,0],"id":12,"left_children":[1,3,5,7,9,11,13,15,17,19,21,23,-1,25,27,29,31,33,35,37,39,41,43,45,-1,-1,-1,47,-1,49,51,53,55,57,-1,59,-1,61,63,65,67,69,-1,71,73,75,-1,-1,-1,-1,-1,-1,-1,-1,-1,-1,-1,-1,-1,-1,-1,-1,-1,-1,-1,-1,-1,-1,-1,-1,-1,-1,-1,-1,-1,-1,-1],"loss_changes":[1.7058517E1,1.7865282E1,3.850811E0,1.7455446E1,9.260416E0,2.7668924E0,3.088581E0,1.7065285E1,2.1863613E0,7.268152E0,1.049824E1,1.8444242E0,0E0,1.4170766E0,2.3862457E-1,2.0866781E1,1.7346611E0,1.0051193E0,4.5951146E-1,5.4204755E0,3.2126846E0,7.1486397E0,7.4958925E0,1.3865108E0,0E0,0E0,0E0,2.7021217E-1,0E0,1.5990888E1,2.264749E1,1.8594246E0,3.263501E0,1.055254E0,0E0,5.576861E-2,0E0,4.3032627E0,1.516819E-3,2.6177788E0,3.1621468E0,5.889642E0,0E0,4.4602814E0,2.2889204E0,1.0731754E0,0E0,0E0,0E0,0E0,0E0,0E0,0E0,0E0,0E0,0E0,0E0,0E0,0E0,0E0,0E0,0E0,0E0,0E0,0E0,0E0,0E0,0E0,0E0,0E0,0E0,0E0,0E0,0E0,0E0,0E0,0E0],"parents":[2147483647,0,0,1,1,2,2,3,3,4,4,5,5,6,6,7,7,8,8,9,9,10,10,11,11,13,13,14,14,15,15,16,16,17,17,18,18,19,19,20,20,21,21,22,22,23,23,27,27,29,29,30,30,31,31,32,32,33,33,35,35,37,37,38,38,39,39,40,40,41,41,43,43,44,44,45,45],"right_children":[2,4,6,8,10,12,14,16,18,20,22,24,-1,26,28,30,32,34,36,38,40,42,44,46,-1,-1,-1,48,-1,50,52,54,56,58,-1,60,-1,62,64,66,68,70,-1,72,74,76,-1,-1,-1,-1,-1,-1,-1,-1,-1,-1,-1,-1,-1,-1,-1,-1,-1,-1,-1,-1,-1,-1,-1,-1,-1,-1,-1,-1,-1,-1,-1],"split_conditions":[-9.536743E-7,-9.536743E-7,-9.536743E-7,-9.536743E-7,7.1761525E-1,-9.536743E-7,1.541513E0,-9.536743E-7,-9.536743E-7,-9.536743E-7,9.364631E-1,-9.536743E-7,2.496232E-1,-1.1619014E0,-9.536743E-7,1.4070575E0,-9.536743E-7,-9.536743E-7,1.6130319E0,-9.536743E-7,-9.536743E-7,-9.536743E-7,1.3527031E0,-9.536743E-7,1.1535078E-1,-1.8412164E-1,1.2991698E-1,-9.536743E-7,-9.640849E-2,-9.536743E-7,1.5043231E0,-9.536743E-7,1.2625892E0,-9.536743E-7,-2.7982533E-2,1.4914498E0,-1.1887552E-1,-9.536743E-7,1.0398314E-1,-9.536743E-7,-1.1772545E-1,-9.536743E-7,4.4099048E-1,-9.536743E-7,1.3655765E0,-9.536743E-7,3.762133E-2,-3.2330543E-1,-1.02578364E-1,-6.7374445E-3,-2.1851227E-1,1.7351738E-1,2.0983357E-2,-1.9754332E-1,7.836875E-2,-2.3025562E-1,2.1749993E-1,-3.016619E-1,-9.5133334E-2,9.6939417E-4,7.475582E-2,-2.776221E-2,-2.1841796E-1,3.3646512E-1,9.414163E-2,-1.5422763E-1,-2.1804677E-2,-8.693401E-2,3.1235355E-1,3.9058592E-2,5.2553415E-1,-1.21945344E-1,1.0022164E-1,3.702447E-1,3.7346575E-2,-1.6094872E-1,8.559011E-2],"split_indices":[16,39,67,7,0,106,0,64,94,81,0,143,0,0,134,0,138,134,0,113,116,139,0,133,0,0,0,137,0,77,0,122,0,95,0,0,0,93,0,140,0,123,0,142,0,130,0,0,0,0,0,0,0,0,0,0,0,0,0,0,0,0,0,0,0,0,0,0,0,0,0,0,0,0,0,0,0],"split_type":[0,0,0,0,0,0,0,0,0,0,0,0,0,0,0,0,0,0,0,0,0,0,0,0,0,0,0,0,0,0,0,0,0,0,0,0,0,0,0,0,0,0,0,0,0,0,0,0,0,0,0,0,0,0,0,0,0,0,0,0,0,0,0,0,0,0,0,0,0,0,0,0,0,0,0,0,0],"sum_hessian":[6.6577686E3,6.592541E3,6.522728E1,6.168676E3,4.2386548E2,4.1026943E1,2.4200335E1,6.1378203E3,3.0855297E1,2.885568E2,1.353087E2,4.0006413E1,1.0205307E0,3.411978E0,2.0788357E1,6.0842754E3,5.3544895E1,2.6307705E1,4.547592E0,1.07400215E2,1.8115659E2,5.120745E1,8.410124E1,3.7864685E1,2.1417284E0,1.1391687E0,2.2728093E0,1.9140383E1,1.6479731E0,5.5944956E3,4.8978006E2,4.9630493E1,3.9143999E0,2.4472078E1,1.8356276E0,2.8390975E0,1.7084945E0,1.0423013E2,3.1700819E0,1.7546245E2,5.6941385E0,4.71281E1,4.079348E0,7.7154724E1,6.9465165E0,3.436657E1,3.4981155E0,1.7417156E1,1.7232262E0,5.5632183E3,3.1277327E1,1.1331487E2,3.7646518E2,4.783414E1,1.7963548E0,1.6865829E0,2.2278168E0,2.067504E1,3.7970383E0,1.6255407E0,1.2135568E0,9.312895E1,1.1101182E1,2.1416247E0,1.0284572E0,1.6041553E2,1.5046921E1,3.7566996E0,1.9374391E0,4.5756992E1,1.3711085E0,6.870739E1,8.44734E0,3.014967E0,3.9315498E0,3.3294346E1,1.0722247E0],"tree_param":{"num_deleted":"0","num_feature":"145","num_nodes":"77","size_leaf_vector":"0"}},{"base_weights":[-2.6747264E-2,-4.374368E-2,1.1443259E-1,-3.9831545E-2,-7.5971687E-1,4.397186E-2,3.5026476E-1,-3.625141E-2,-7.828322E-1,-8.3060056E-1,1.6008389E-1,6.6156864E-2,-6.258736E-1,4.4987106E-1,-1.9262333E-1,-3.854146E-2,1.0784754E0,-9.360922E-1,-3.9342192E-1,-8.8995427E-1,-2.5121784E-1,8.672371E-1,4.6157937E-2,-7.8555435E-2,-9.2061484E-1,5.03795E-1,-8.370104E-1,-3.9577705E-1,4.8043233E-1,-4.5652535E-2,3.119482E-1,1.3706018E0,-3.9948943E-1,-1.0828451E0,-3.3367646E-1,-1.8451448E-1,-8.172249E-1,-9.167969E-1,-1.15298264E-1,3.377236E-1,1.8913875E0,6.8993844E-2,-5.478415E-1,3.6989844E-1,-6.143918E-1,-1.0271721E0,-3.7451702E-1,5.681202E-1,-6.8874425E-1,-1.8983704E-1,-1.1482178E0,-8.411601E-2,-9.0093184E-1,-3.556466E-1,1.191242E0,-5.4091975E-2,2.4605237E-1,2.673114E-1,1.2067482E0,2.192382E-1,1.6090788E0,-1.1333098E0,-4.2515945E-1,3.9208105E-1,-8.9607507E-1,-3.0116433E-1,2.4102494E-1,-9.455461E-1,-1.271223E-1,5.7460445E-1,-5.062829E-1,2.812511E-2,4.563866E-1,4.2360663E-1,-6.507014E-1,3.629909E-2,4.98888E-1,-7.7084714E-1,2.3345278E-1,6.27769E-1,-8.260358E-1,-9.651395E-1,3.721393E-1,-6.029577E-1,3.094792E-1,-3.9432877E-1,5.885143E-1,-1.0813764E0,-2.7330229E-2,-6.3949203E-1,4.639268E-2],"categories":[],"categories_nodes":[],"categories_segments":[],"categories_sizes":[],"default_left":[1,1,1,1,1,1,1,1,1,1,0,1,1,1,1,1,1,1,1,1,0,1,1,1,1,1,1,1,1,1,1,1,0,1,1,1,0,1,0,1,0,1,1,1,0,0,1,1,1,1,0,1,1,1,0,0,0,0,0,0,0,0,0,0,0,0,0,0,0,0,0,0,0,0,0,0,0,0,0,0,0,0,0,0,0,0,0,0,0,0,0],"id":13,"left_children":[1,3,5,7,9,11,13,15,17,19,-1,21,23,25,27,29,31,33,35,37,-1,39,41,43,45,47,49,51,53,55,57,59,-1,61,63,65,-1,67,-1,69,-1,71,73,75,-1,-1,77,79,81,83,-1,85,87,89,-1,-1,-1,-1,-1,-1,-1,-1,-1,-1,-1,-1,-1,-1,-1,-1,-1,-1,-1,-1,-1,-1,-1,-1,-1,-1,-1,-1,-1,-1,-1,-1,-1,-1,-1,-1,-1],"loss_changes":[1.5856725E1,1.648714E1,1.178459E1,1.5575443E1,2.2187557E0,8.1835575E0,8.912514E0,1.4947036E1,1.3076305E0,8.0340195E-1,0E0,8.470901E0,2.7765813E0,1.00126915E1,3.7457006E0,1.4539508E1,5.730795E0,1.35602E0,7.040744E-1,4.4939613E-1,0E0,6.3478336E0,7.0826793E0,1.9753822E0,2.7783203E-1,1.0615021E1,9.772186E-1,3.1552603E0,4.275119E0,1.40774765E1,4.3113365E0,2.4614887E0,0E0,2.1818161E-2,2.4944527E0,4.5774537E-1,0E0,4.6229553E-1,0E0,2.2321825E0,0E0,7.919471E0,2.2080703E0,1.7916638E-1,0E0,0E0,1.0070901E0,1.1080193E1,2.4917831E0,8.3123565E-1,0E0,3.1105452E0,1.1885991E0,4.5738387E-1,0E0,0E0,0E0,0E0,0E0,0E0,0E0,0E0,0E0,0E0,0E0,0E0,0E0,0E0,0E0,0E0,0E0,0E0,0E0,0E0,0E0,0E0,0E0,0E0,0E0,0E0,0E0,0E0,0E0,0E0,0E0,0E0,0E0,0E0,0E0,0E0,0E0],"parents":[2147483647,0,0,1,1,2,2,3,3,4,4,5,5,6,6,7,7,8,8,9,9,11,11,12,12,13,13,14,14,15,15,16,16,17,17,18,18,19,19,21,21,22,22,23,23,24,24,25,25,26,26,27,27,28,28,29,29,30,30,31,31,33,33,34,34,35,35,37,37,39,39,41,41,42,42,43,43,46,46,47,47,48,48,49,49,51,51,52,52,53,53],"right_children":[2,4,6,8,10,12,14,16,18,20,-1,22,24,26,28,30,32,34,36,38,-1,40,42,44,46,48,50,52,54,56,58,60,-1,62,64,66,-1,68,-1,70,-1,72,74,76,-1,-1,78,80,82,84,-1,86,88,90,-1,-1,-1,-1,-1,-1,-1,-1,-1,-1,-1,-1,-1,-1,-1,-1,-1,-1,-1,-1,-1,-1,-1,-1,-1,-1,-1,-1,-1,-1,-1,-1,-1,-1,-1,-1,-1],"split_conditions":[-9.536743E-7,-9.536743E-7,-9.536743E-7,-9.536743E-7,-9.536743E-7,-9.536743E-7,-9.536743E-7,-9.536743E-7,-1.03421666E-1,-9.536743E-7,4.802517E-2,-2.1059508E0,-9.536743E-7,-9.536743E-7,-9.536743E-7,-9.536743E-7,7.0474184E-1,-9.536743E-7,-9.536743E-7,-9.536743E-7,-7.536536E-2,-9.536743E-7,-9.536743E-7,3.542993E-1,1.0337288E0,-9.536743E-7,1.3974258E-1,7.4050134E-1,3.972106E-1,-9.536743E-7,-9.536743E-7,-9.536743E-7,-1.19846836E-1,-9.536743E-7,-2.6791513E-1,-9.536743E-7,-2.4516748E-1,-9.536743E-7,-3.458948E-2,-9.536743E-7,5.6741625E-1,-9.536743E-7,-1.1690533E0,-3.8949725E-1,-1.8431754E-1,-3.0815163E-1,-9.536743E-7,-9.536743E-7,1.2911968E0,-6.112058E-1,-3.4446535E-1,3.542993E-1,-9.536743E-7,-3.9664915E-1,3.573726E-1,-1.6227594E-2,7.381571E-2,8.019342E-2,3.620245E-1,6.577147E-2,4.8272365E-1,-3.3999297E-1,-1.2754785E-1,1.1762432E-1,-2.6882252E-1,-9.03493E-2,7.230748E-2,-2.8366384E-1,-3.813669E-2,1.7238134E-1,-1.5188488E-1,8.437533E-3,1.3691598E-1,1.2708199E-1,-1.9521043E-1,1.0889728E-2,1.496664E-1,-2.3125415E-1,7.003584E-2,1.8833071E-1,-2.4781075E-1,-2.8954187E-1,1.11641794E-1,-1.8088733E-1,9.284376E-2,-1.18298635E-1,1.765543E-1,-3.2441294E-1,-8.199069E-3,-1.9184762E-1,1.3917805E-2],"split_indices":[144,66,90,14,140,126,93,79,0,139,0,0,81,110,118,22,0,95,95,127,0,99,109,0,0,109,0,0,0,34,105,43,0,141,0,135,0,119,0,57,0,59,0,0,0,0,100,131,0,0,0,0,104,0,0,0,0,0,0,0,0,0,0,0,0,0,0,0,0,0,0,0,0,0,0,0,0,0,0,0,0,0,0,0,0,0,0,0,0,0,0],"split_type":[0,0,0,0,0,0,0,0,0,0,0,0,0,0,0,0,0,0,0,0,0,0,0,0,0,0,0,0,0,0,0,0,0,0,0,0,0,0,0,0,0,0,0,0,0,0,0,0,0,0,0,0,0,0,0,0,0,0,0,0,0,0,0,0,0,0,0,0,0,0,0,0,0,0,0,0,0,0,0,0,0,0,0,0,0,0,0,0,0,0,0],"sum_hessian":[6.6051167E3,5.8959976E3,7.091196E2,5.865006E3,3.0991243E1,5.4690466E2,1.6221492E2,5.837925E3,2.7081133E1,2.8863853E1,2.12739E0,5.3024445E2,1.6660238E1,1.3721141E2,2.50035E1,5.82692E3,1.1005149E1,1.8425537E1,8.655597E0,2.569549E1,3.1683629E0,1.1883241E1,5.183612E2,6.2748013E0,1.0385437E1,1.3227715E2,4.9342704E0,1.952276E1,5.48074E0,5.711901E3,1.1501886E2,9.249572E0,1.7555766E0,1.4174917E1,4.250619E0,6.759151E0,1.8964458E0,2.465759E1,1.0379004E0,8.709799E0,3.173442E0,5.0002203E2,1.8339159E1,3.5845165E0,2.6902847E0,7.9527316E0,2.4327056E0,1.2600413E2,6.2730165E0,2.12507E0,2.8092003E0,1.2795157E1,6.7276034E0,2.748049E0,2.7326908E0,5.552086E3,1.598152E2,1.1079083E2,4.228029E0,1.9164255E0,7.3331466E0,1.2493131E1,1.6817864E0,1.9880042E0,2.262615E0,5.5343413E0,1.2248099E0,2.3600975E1,1.056614E0,7.050253E0,1.6595459E0,4.5327548E2,4.6746555E1,1.4573274E0,1.6881832E1,1.3568283E0,2.2276883E0,1.3104992E0,1.1222064E0,1.21361404E2,4.642722E0,5.048075E0,1.2249415E0,1.0493222E0,1.0757477E0,9.039807E0,3.7553499E0,5.3787684E0,1.3488352E0,1.2646016E0,1.4834474E0],"tree_param":{"num_deleted":"0","num_feature":"145","num_nodes":"91","size_leaf_vector":"0"}},{"base_weights":[-1.9628301E-2,-2.0961326E-2,1.7375814E0,-8.933381E-3,-1.9487241E-1,4.300095E-3,-1.989708E-1,-2.3008202E-1,2.0601346E-1,-5.239548E-3,2.8060862E-1,-1.7487477E-1,-8.3608836E-1,-1.8995531E-1,-5.692226E-1,4.0543976E-1,-6.172266E-1,-1.460047E-2,2.57993E-1,3.7590373E-1,-5.164563E-1,-1.9774501E-1,3.6778846E-1,-2.1258225E-1,-1.0039788E0,-1.6551302E-1,-7.859763E-1,-6.2670135E-1,6.4917284E-1,9.777559E-1,-1.9381113E-1,-7.758582E-1,-1.0608409E-1,-1.6608065E-2,1.243921E0,2.872666E-1,-4.419323E-1,4.7361124E-1,-4.784141E-1,-1.6537884E-1,-1.0039258E0,-2.1975832E-1,3.510673E-1,-2.3590086E-1,5.511456E-1,-6.732195E-1,1.7528048E-1,-1.0744147E0,-4.0990525E-1,-1.1741895E-1,-4.2545456E-1,-8.811184E-2,-8.372681E-1,-6.869255E-1,1.0246553E-1,1.1743441E0,-1.5643367E-1,-3.959359E-1,1.2271749E0],"categories":[],"categories_nodes":[],"categories_segments":[],"categories_sizes":[],"default_left":[1,1,0,1,1,1,1,1,1,1,1,1,1,1,1,1,1,1,1,1,1,1,1,1,1,1,1,1,0,1,1,0,0,0,0,0,0,0,0,0,0,0,0,0,0,0,0,0,0,0,0,0,0,0,0,0,0,0,0],"id":14,"left_children":[1,3,-1,5,7,9,11,13,15,17,19,21,23,25,27,29,31,33,35,37,39,41,43,45,47,49,51,53,-1,55,57,-1,-1,-1,-1,-1,-1,-1,-1,-1,-1,-1,-1,-1,-1,-1,-1,-1,-1,-1,-1,-1,-1,-1,-1,-1,-1,-1,-1],"loss_changes":[1.5410378E1,1.3719044E1,0E0,1.5432217E1,6.035845E0,1.5125085E1,5.9868574E0,5.2057343E0,5.9605455E0,1.36723385E1,1.4739746E1,4.8658247E0,1.2828817E0,4.9784594E0,3.2649775E0,9.999054E0,4.9979854E-1,1.3557041E1,4.031026E0,1.4552923E1,3.4059057E0,4.5620995E0,1.8974957E0,8.8643897E-1,1.9584656E-2,4.177087E0,4.1114712E-1,1.804184E0,0E0,3.4826288E0,4.7387104E0,0E0,0E0,0E0,0E0,0E0,0E0,0E0,0E0,0E0,0E0,0E0,0E0,0E0,0E0,0E0,0E0,0E0,0E0,0E0,0E0,0E0,0E0,0E0,0E0,0E0,0E0,0E0,0E0],"parents":[2147483647,0,0,1,1,3,3,4,4,5,5,6,6,7,7,8,8,9,9,10,10,11,11,12,12,13,13,14,14,15,15,16,16,17,17,18,18,19,19,20,20,21,21,22,22,23,23,24,24,25,25,26,26,27,27,29,29,30,30],"right_children":[2,4,-1,6,8,10,12,14,16,18,20,22,24,26,28,30,32,34,36,38,40,42,44,46,48,50,52,54,-1,56,58,-1,-1,-1,-1,-1,-1,-1,-1,-1,-1,-1,-1,-1,-1,-1,-1,-1,-1,-1,-1,-1,-1,-1,-1,-1,-1,-1,-1],"split_conditions":[-9.536743E-7,-9.536743E-7,5.2127445E-1,-9.536743E-7,-9.536743E-7,-9.536743E-7,-9.536743E-7,-9.536743E-7,-9.536743E-7,-9.536743E-7,-9.536743E-7,-9.536743E-7,-5.96902E-1,-9.536743E-7,-9.536743E-7,3.399955E-1,7.537558E-2,-9.536743E-7,-9.536743E-7,-9.536743E-7,6.832862E-1,-9.536743E-7,-8.472182E-1,-1.0760787E0,1.405627E0,-9.536743E-7,-1.1261419E0,-9.536743E-7,1.9475186E-1,-9.536743E-7,1.3984752E0,-2.3275748E-1,-3.182523E-2,-4.98242E-3,3.7317634E-1,8.617999E-2,-1.325797E-1,1.4208338E-1,-1.4352423E-1,-4.9613655E-2,-3.0117774E-1,-6.59275E-2,1.0532019E-1,-7.077026E-2,1.6534369E-1,-2.0196585E-1,5.2584145E-2,-3.2232442E-1,-1.2297158E-1,-3.5225686E-2,-1.2763637E-1,-2.6433554E-2,-2.5118044E-1,-2.0607765E-1,3.0739661E-2,3.5230324E-1,-4.6930104E-2,-1.1878077E-1,3.6815247E-1],"split_indices":[62,135,0,136,23,111,117,98,90,83,134,129,0,117,40,0,0,88,103,133,0,103,0,0,0,95,0,91,0,80,0,0,0,0,0,0,0,0,0,0,0,0,0,0,0,0,0,0,0,0,0,0,0,0,0,0,0,0,0],"split_type":[0,0,0,0,0,0,0,0,0,0,0,0,0,0,0,0,0,0,0,0,0,0,0,0,0,0,0,0,0,0,0,0,0,0,0,0,0,0,0,0,0,0,0,0,0,0,0,0,0,0,0,0,0,0,0,0,0,0,0],"sum_hessian":[6.562329E3,6.558342E3,3.9871032E0,6.135082E3,4.2325986E2,5.7365854E3,3.9849643E2,3.8947824E2,3.378162E1,5.5460864E3,1.9049944E2,3.8520242E2,1.3294024E1,3.4966626E2,3.9811985E1,2.7602535E1,6.1790867E0,5.3565444E3,1.8954175E2,1.7062796E2,1.9871468E1,3.7023468E2,1.4967733E1,3.3010156E0,9.993009E0,3.37119E2,1.2547257E1,3.848219E1,1.3297926E0,1.3795487E1,1.3807047E1,4.320379E0,1.8587079E0,5.3489985E3,7.5459266E0,1.8249852E2,7.043224E0,1.535161E2,1.7111858E1,1.2330358E1,7.541111E0,3.5653342E2,1.370127E1,3.4202516E0,1.1547482E1,1.1726389E0,2.1283765E0,8.21093E0,1.7820787E0,2.8570914E2,5.1409843E1,1.0451428E0,1.1502114E1,3.5599827E1,2.8823655E0,1.1727386E1,2.0681012E0,1.27192E1,1.0878468E0],"tree_param":{"num_deleted":"0","num_feature":"145","num_nodes":"59","size_leaf_vector":"0"}},{"base_weights":[-1.4464091E-2,-1.1488517E-2,-6.7027867E-1,-3.0498665E-2,8.549007E-2,-7.4850976E-1,3.2221085E-1,-5.552736E-2,8.168671E-2,-2.000878E-1,1.21434174E-1,-8.5300434E-1,6.826671E-2,-6.4677805E-2,2.150091E-1,6.365364E-2,8.880229E-1,-3.091657E-1,4.7603378E-1,1.4081809E-1,-4.0869433E-1,-9.0263957E-1,-2.6558688E-1,-9.420788E-2,3.7581816E-2,7.514118E-2,9.2673105E-1,7.8907646E-2,-8.4470284E-1,2.434557E-1,1.5302063E0,-3.5353246E-1,7.067335E-1,1.3603624E0,1.5258364E-1,2.5654295E-1,4.9092285E-2,-2.4743487E-1,-9.099233E-1,-9.3013865E-1,-2.0442605E-1,-1.8201363E-1,-2.4325516E-2,-3.3553273E-3,4.3686882E-1,-4.5845162E-2,9.697477E-1,1.1480491E0,-9.9208444E-1,-9.590106E-2,1.5266497E-1,-1.0018903E0,5.5099227E-2,-4.589629E-1,7.78058E-1,1.6452749E0,4.3430462E-1,-4.1159144E-1,4.7671673E-1,1.245183E-1,9.424088E-1,-1.567649E-1,9.387233E-1,3.1262675E-1,-6.336239E-1,2.913045E-2,7.540625E-1,-3.036935E-1,4.1555494E-1,-9.604078E-1,-3.57994E-1],"categories":[],"categories_nodes":[],"categories_segments":[],"categories_sizes":[],"default_left":[1,1,1,1,1,1,0,1,1,1,1,1,0,1,1,1,1,1,1,1,1,1,0,1,1,1,1,1,1,1,1,1,1,0,1,1,1,1,0,1,0,0,0,0,0,0,0,0,0,0,0,0,0,0,0,0,0,0,0,0,0,0,0,0,0,0,0,0,0,0,0],"id":15,"left_children":[1,3,5,7,9,11,-1,13,15,17,19,21,-1,23,25,27,29,31,33,35,37,39,-1,41,43,45,47,49,51,53,55,57,59,-1,61,63,65,67,-1,69,-1,-1,-1,-1,-1,-1,-1,-1,-1,-1,-1,-1,-1,-1,-1,-1,-1,-1,-1,-1,-1,-1,-1,-1,-1,-1,-1,-1,-1,-1,-1],"loss_changes":[1.272654E1,1.1980615E1,2.5283213E0,1.5259689E1,1.0957624E1,2.4143372E0,0E0,1.1011708E1,1.4359475E1,8.956728E0,9.78552E0,4.7602463E-1,0E0,1.2982447E1,1.44223175E1,1.3518313E1,8.572561E0,4.913205E0,4.65152E0,9.689713E0,2.4947028E0,2.3646545E-1,0E0,2.0460947E1,1.5754981E1,1.3331059E1,1.1255468E1,1.2336805E1,2.3350391E0,4.85361E0,6.2667656E-1,5.0069695E0,5.224652E-1,0E0,3.4459515E0,2.0362602E1,7.1707344E0,1.1270243E0,0E0,2.15168E-2,0E0,0E0,0E0,0E0,0E0,0E0,0E0,0E0,0E0,0E0,0E0,0E0,0E0,0E0,0E0,0E0,0E0,0E0,0E0,0E0,0E0,0E0,0E0,0E0,0E0,0E0,0E0,0E0,0E0,0E0,0E0],"parents":[2147483647,0,0,1,1,2,2,3,3,4,4,5,5,7,7,8,8,9,9,10,10,11,11,13,13,14,14,15,15,16,16,17,17,18,18,19,19,20,20,21,21,23,23,24,24,25,25,26,26,27,27,28,28,29,29,30,30,31,31,32,32,34,34,35,35,36,36,37,37,39,39],"right_children":[2,4,6,8,10,12,-1,14,16,18,20,22,-1,24,26,28,30,32,34,36,38,40,-1,42,44,46,48,50,52,54,56,58,60,-1,62,64,66,68,-1,70,-1,-1,-1,-1,-1,-1,-1,-1,-1,-1,-1,-1,-1,-1,-1,-1,-1,-1,-1,-1,-1,-1,-1,-1,-1,-1,-1,-1,-1,-1,-1],"split_conditions":[-9.536743E-7,-9.536743E-7,-9.536743E-7,-9.536743E-7,-1.1418761E0,-9.536743E-7,9.666326E-2,-9.536743E-7,-9.536743E-7,-9.536743E-7,-9.536743E-7,-9.536743E-7,2.0480014E-2,-9.536743E-7,-9.536743E-7,-9.536743E-7,3.5429928E-1,-9.536743E-7,-2.084495E0,-9.536743E-7,-9.536743E-7,-9.536743E-7,-7.967607E-2,-9.536743E-7,-9.536743E-7,-9.536743E-7,1.5028927E0,-4.4671237E-1,-9.536743E-7,-9.536743E-7,1.4842979E0,-9.536743E-7,-9.536743E-7,4.0810874E-1,-9.536743E-7,-9.536743E-7,-9.536743E-7,-9.536743E-7,-2.72977E-1,-9.536743E-7,-6.132782E-2,-5.460409E-2,-7.297655E-3,-1.0065982E-3,1.3106064E-1,-1.3753549E-2,2.9092434E-1,3.4441474E-1,-2.9762533E-1,-2.8770318E-2,4.5799494E-2,-3.005671E-1,1.6529769E-2,-1.3768888E-1,2.334174E-1,4.935825E-1,1.3029139E-1,-1.2347744E-1,1.4301503E-1,3.735549E-2,2.8272265E-1,-4.702947E-2,2.8161702E-1,9.378803E-2,-1.9008718E-1,8.739135E-3,2.2621875E-1,-9.1108054E-2,1.2466649E-1,-2.8812236E-1,-1.07398205E-1],"split_indices":[5,99,135,94,0,133,0,117,123,144,128,139,0,95,139,105,0,50,0,81,90,123,0,100,143,96,0,0,90,100,0,118,83,0,83,104,112,91,0,142,0,0,0,0,0,0,0,0,0,0,0,0,0,0,0,0,0,0,0,0,0,0,0,0,0,0,0,0,0,0,0],"split_type":[0,0,0,0,0,0,0,0,0,0,0,0,0,0,0,0,0,0,0,0,0,0,0,0,0,0,0,0,0,0,0,0,0,0,0,0,0,0,0,0,0,0,0,0,0,0,0,0,0,0,0,0,0,0,0,0,0,0,0,0,0,0,0,0,0,0,0,0,0,0,0],"sum_hessian":[6.524612E3,6.496155E3,2.8456957E1,5.432031E3,1.0641239E3,2.6605642E1,1.8513137E0,4.441608E3,9.9042303E2,1.1845174E2,9.456721E2,2.3548592E1,3.0570512E0,4.297029E3,1.445789E2,9.6981287E2,2.0610155E1,1.02464066E2,1.5987669E1,9.130223E2,3.2649883E1,2.1219017E1,2.329574E0,3.334256E3,9.6277295E2,1.21756775E2,2.2822119E1,9.5469385E2,1.511902E1,1.0974262E1,9.635893E0,9.880118E1,3.6628873E0,3.4230618E0,1.2564607E1,4.0290485E2,5.1011743E2,2.5832499E1,6.8173847E0,2.0095392E1,1.1236244E0,1.4769253E3,1.8573307E3,8.741425E2,8.8630394E1,1.0808777E2,1.3669006E1,2.0822159E1,1.9999598E0,2.831985E2,6.7149536E2,1.277405E1,2.3449705E0,4.803884E0,6.1703777E0,8.26661E0,1.369283E0,9.2814926E1,5.9862523E0,1.495855E0,2.1670325E0,9.591076E0,2.9735308E0,3.7963522E2,2.3269613E1,4.970834E2,1.3034022E1,2.431146E1,1.5210392E0,1.8441158E1,1.6542345E0],"tree_param":{"num_deleted":"0","num_feature":"145","num_nodes":"71","size_leaf_vector":"0"}},{"base_weights":[-1.0984813E-2,-8.543511E-3,-7.683995E-1,-5.8098366E-3,-6.5152735E-1,4.0084742E-2,-9.257254E-1,-4.20857E-4,-3.3753684E-1,-7.212341E-1,1.0154353E-1,2.4862264E-1,-1.24711946E-1,-9.7121394E-1,-2.6085895E-1,2.3577537E-3,-6.360006E-1,-4.1114157E-1,5.6927025E-2,-7.769216E-1,1.6297255E-1,-1.0253196E0,-2.9432067E-1,5.982531E-3,-4.7310558E-1,-8.3078E-1,-3.0196232E-1,-1.6354586E-1,-5.679046E-1,1.8631163E-1,-5.28392E-1,-8.3439624E-1,-9.684442E-2,8.733692E-3,-6.149582E-1,-5.387474E-1,9.326396E-2,-9.7784954E-1,-2.838926E-1,-3.771455E-1,1.6429025E-1,-4.5561013E-1,2.934492E-2,-6.251074E-1,1.9589719E-1,3.4462267E-1,-4.906305E-1,-9.3854564E-1,-1.4179832E-1],"categories":[],"categories_nodes":[],"categories_segments":[],"categories_sizes":[],"default_left":[1,1,1,1,1,1,1,1,1,1,0,0,0,1,0,1,1,1,1,1,0,0,0,1,1,1,1,1,1,1,0,1,0,0,0,0,0,0,0,0,0,0,0,0,0,0,0,0,0],"id":16,"left_children":[1,3,5,7,9,11,13,15,17,19,-1,-1,-1,21,-1,23,25,27,29,31,-1,-1,-1,33,35,37,39,41,43,45,-1,47,-1,-1,-1,-1,-1,-1,-1,-1,-1,-1,-1,-1,-1,-1,-1,-1,-1],"loss_changes":[1.1994127E1,1.1369036E1,2.6879196E0,1.1519376E1,1.5106897E0,1.806135E-1,2.7552795E-1,1.1201413E1,3.0141659E0,1.366786E0,0E0,0E0,0E0,2.842102E-1,0E0,1.088685E1,1.5454302E0,3.2812462E0,1.3916714E0,8.5211563E-1,0E0,0E0,0E0,1.0713834E1,1.8270941E0,1.0791187E0,4.734975E-1,1.9911261E0,2.430462E0,1.7470608E0,0E0,1.4449472E0,0E0,0E0,0E0,0E0,0E0,0E0,0E0,0E0,0E0,0E0,0E0,0E0,0E0,0E0,0E0,0E0,0E0],"parents":[2147483647,0,0,1,1,2,2,3,3,4,4,5,5,6,6,7,7,8,8,9,9,13,13,15,15,16,16,17,17,18,18,19,19,23,23,24,24,25,25,26,26,27,27,28,28,29,29,31,31],"right_children":[2,4,6,8,10,12,14,16,18,20,-1,-1,-1,22,-1,24,26,28,30,32,-1,-1,-1,34,36,38,40,42,44,46,-1,48,-1,-1,-1,-1,-1,-1,-1,-1,-1,-1,-1,-1,-1,-1,-1,-1,-1],"split_conditions":[-9.536743E-7,-9.536743E-7,1.541513E0,-9.536743E-7,-9.536743E-7,6.689824E-1,-9.536743E-7,-9.536743E-7,-9.536743E-7,-9.536743E-7,3.046306E-2,7.4586794E-2,-3.7413586E-2,-9.536743E-7,-7.825769E-2,-9.536743E-7,-1.03421666E-1,-1.9228624E0,-9.536743E-7,-9.536743E-7,4.8891768E-2,-3.0759588E-1,-8.8296205E-2,-9.536743E-7,-9.536743E-7,-9.536743E-7,-9.536743E-7,-1.9571915E0,-9.536743E-7,-9.536743E-7,-1.5851761E-1,-9.536743E-7,-2.9053327E-2,2.6201075E-3,-1.8448748E-1,-1.6162422E-1,2.797919E-2,-2.9335487E-1,-8.516778E-2,-1.1314365E-1,4.9287077E-2,-1.3668305E-1,8.803477E-3,-1.8753223E-1,5.876916E-2,1.03386804E-1,-1.4718916E-1,-2.815637E-1,-4.2539496E-2],"split_indices":[67,7,0,18,134,0,134,14,139,129,0,0,0,137,0,64,0,0,93,142,0,0,0,77,133,95,93,0,114,97,0,95,0,0,0,0,0,0,0,0,0,0,0,0,0,0,0,0,0],"split_type":[0,0,0,0,0,0,0,0,0,0,0,0,0,0,0,0,0,0,0,0,0,0,0,0,0,0,0,0,0,0,0,0,0,0,0,0,0,0,0,0,0,0,0,0,0,0,0,0,0],"sum_hessian":[6.489095E3,6.4692544E3,1.9840448E1,6.4428716E3,2.638312E1,3.3533068E0,1.648714E1,6.3408643E3,1.02007484E2,2.4186604E1,2.1965158E0,1.2556777E0,2.097629E0,1.5000105E1,1.4870363E0,6.314256E3,2.6608206E1,8.593098E1,1.607651E1,2.2867725E1,1.3188779E0,1.3413213E1,1.5868925E0,6.267462E3,4.6793667E1,1.586826E1,1.0739945E1,3.410612E1,5.1824856E1,1.3724422E1,2.3520877E0,2.0876495E1,1.9912299E0,6.2407974E3,2.6664755E1,4.1977303E1,4.8163667E0,1.1884296E1,3.983964E0,9.413184E0,1.3267616E0,1.3023964E1,2.1082157E1,4.838293E1,3.4419224E0,1.15210085E1,2.2034137E0,1.783887E1,3.037627E0],"tree_param":{"num_deleted":"0","num_feature":"145","num_nodes":"49","size_leaf_vector":"0"}},{"base_weights":[-8.462024E-3,-5.796323E-3,-5.9735286E-1,-1.3248927E-2,2.0510639E-1,-7.4846023E-1,6.8462414E-1,-1.6220467E-2,6.048251E-1,2.7040637E-1,-7.9091686E-1,-9.0482855E-1,5.374593E-1,-2.9717011E-2,1.09736025E-1,4.4806793E-1,1.3980916E0,2.1780358E-1,6.6774535E-1,-8.867415E-1,8.205724E-2,-9.692443E-1,-1.3466106E-1,-3.209598E-2,8.5579395E-1,7.596829E-2,8.4319484E-1,5.390378E-1,-4.152452E-1,1.6927536E-1,5.726282E-1,-8.017834E-1,7.887877E-1,-9.3021864E-1,-2.9403037E-1,-1.0017563E0,-1.4550029E-1,-4.0226754E-2,1.8535915E-1,-2.1702836E-1,9.972096E-1,4.6147898E-2,9.176188E-1,9.332162E-1,-7.135265E-1,4.0327916E-1,1.177243E0,1.1231776E-1,5.4726774E-1,7.328138E-1,-8.2253575E-1,1.0747149E0,7.68687E-2,-4.821949E-1,-1.0510503E0,-1.0323064E0,-2.1104239E-1],"categories":[],"categories_nodes":[],"categories_segments":[],"categories_sizes":[],"default_left":[1,1,1,1,1,1,0,1,1,1,1,1,0,1,1,1,0,1,1,1,0,1,0,1,1,1,1,1,0,1,1,0,1,1,0,1,0,0,0,0,0,0,0,0,0,0,0,0,0,0,0,0,0,0,0,0,0],"id":17,"left_children":[1,3,5,7,9,11,-1,13,15,17,19,21,-1,23,25,27,-1,29,31,33,-1,35,-1,37,39,41,43,45,-1,47,49,-1,51,53,-1,55,-1,-1,-1,-1,-1,-1,-1,-1,-1,-1,-1,-1,-1,-1,-1,-1,-1,-1,-1,-1,-1],"loss_changes":[1.0158639E1,1.0133293E1,6.1614265E0,1.144517E1,1.4525543E1,5.827757E0,0E0,1.0538788E1,3.0813322E0,4.1863184E0,1.226613E0,1.0629616E0,0E0,1.182115E1,1.4796658E1,2.2947264E0,0E0,3.0800495E0,4.856182E0,4.895878E-2,0E0,4.4447327E-1,0E0,9.881115E0,2.4976425E0,1.4381815E1,4.352812E0,1.6298018E0,0E0,3.4634738E0,5.46992E0,0E0,4.485738E0,9.9310875E-2,0E0,2.9019547E-1,0E0,0E0,0E0,0E0,0E0,0E0,0E0,0E0,0E0,0E0,0E0,0E0,0E0,0E0,0E0,0E0,0E0,0E0,0E0,0E0,0E0],"parents":[2147483647,0,0,1,1,2,2,3,3,4,4,5,5,7,7,8,8,9,9,10,10,11,11,13,13,14,14,15,15,17,17,18,18,19,19,21,21,23,23,24,24,25,25,26,26,27,27,29,29,30,30,32,32,33,33,35,35],"right_children":[2,4,6,8,10,12,-1,14,16,18,20,22,-1,24,26,28,-1,30,32,34,-1,36,-1,38,40,42,44,46,-1,48,50,-1,52,54,-1,56,-1,-1,-1,-1,-1,-1,-1,-1,-1,-1,-1,-1,-1,-1,-1,-1,-1,-1,-1,-1,-1],"split_conditions":[-9.536743E-7,-9.536743E-7,-9.536743E-7,-9.536743E-7,-9.536743E-7,-9.536743E-7,2.0538725E-1,-9.536743E-7,-9.536743E-7,-9.536743E-7,1.4270828E0,-9.536743E-7,1.612378E-1,-9.536743E-7,-9.536743E-7,-9.536743E-7,4.1942748E-1,-9.536743E-7,-1.5266478E0,-9.536743E-7,2.4617173E-2,-9.536743E-7,-4.0398322E-2,-9.536743E-7,-9.044333E-1,-9.536743E-7,-9.536743E-7,-9.536743E-7,-1.24573566E-1,-9.536743E-7,-9.536743E-7,-2.4053502E-1,6.103369E-1,-3.1797838E-1,-8.8209115E-2,-9.536743E-7,-4.3650087E-2,-1.2068027E-2,5.5607747E-2,-6.5108515E-2,2.991629E-1,1.384437E-2,2.7528566E-1,2.7996486E-1,-2.1405795E-1,1.2098375E-1,3.531729E-1,3.369533E-2,1.6418032E-1,2.1984415E-1,-2.4676074E-1,3.224145E-1,2.306061E-2,-1.4465848E-1,-3.153151E-1,-3.0969194E-1,-6.331272E-2],"split_indices":[80,116,144,63,96,133,0,142,133,139,0,135,0,20,106,137,0,94,0,91,0,105,0,112,0,104,21,143,0,143,39,0,0,0,0,116,0,0,0,0,0,0,0,0,0,0,0,0,0,0,0,0,0,0,0,0,0],"split_type":[0,0,0,0,0,0,0,0,0,0,0,0,0,0,0,0,0,0,0,0,0,0,0,0,0,0,0,0,0,0,0,0,0,0,0,0,0,0,0,0,0,0,0,0,0,0,0,0,0,0,0,0,0,0,0,0,0],"sum_hessian":[6.4724727E3,6.4443115E3,2.8161278E1,6.2252686E3,2.1904318E2,2.556418E1,2.5970976E0,6.196451E3,2.8817175E1,2.0624982E2,1.2793368E1,2.3056818E1,2.5073612E0,5.5974365E3,5.990149E2,2.5368877E1,3.4482975E0,1.8350427E2,2.2745548E1,1.1513755E1,1.2796131E0,2.1038687E1,2.0181313E0,5.5834E3,1.4036325E1,5.737056E2,2.5309277E1,2.3290323E1,2.078554E0,1.6272585E2,2.0778429E1,1.3029498E0,2.1442598E1,1.0196389E1,1.3173655E0,2.0031954E1,1.0067333E0,5.3829434E3,2.004564E2,1.5724621E0,1.2463863E1,5.55093E2,1.8612587E1,2.430434E1,1.004936E0,2.0550688E1,2.7396352E0,1.4254384E2,2.0182003E1,1.906431E1,1.7141191E0,1.4934764E1,6.5078335E0,3.2259052E0,6.9704843E0,1.8992615E1,1.0393387E0],"tree_param":{"num_deleted":"0","num_feature":"145","num_nodes":"57","size_leaf_vector":"0"}},{"base_weights":[-6.184791E-3,-1.6080182E-2,1.5370302E-1,-2.0514816E-2,3.108824E-1,5.8928646E-2,8.14946E-1,-3.0412368E-2,1.3393344E-1,5.5354387E-1,1.784777E-2,-5.9822875E-1,1.12988904E-1,1.0326234E0,-3.7116385E-1,-2.2987368E-2,-2.640946E-1,7.900979E-2,6.6980004E-1,6.752718E-1,-4.184681E-2,-1.9946122E-1,2.846502E-1,-6.7979115E-1,-9.374394E-2,2.9106063E-1,-9.417133E-2,1.1155463E0,-7.7990806E-1,5.8234157E-3,-4.8775077E-1,-1.2086209E-2,-1.9182463E-1,-4.9794897E-1,-2.23421E-2,1.0837465E-1,-6.7507166E-1,7.9715365E-1,-3.32642E-1,7.4025524E-1,-5.754607E-1,-3.290266E-1,4.0805465E-1,-3.024097E-1,2.2622426E-1,4.0941343E-1,-4.666716E-1,-7.405312E-1,-3.211541E-1,-2.7507117E-1,2.452554E-1,6.041939E-1,1.5577948E-1,-4.8691648E-1,1.7708157E-1,1.189495E0,-4.5805892E-1,-6.358147E-1,-2.3498677E-1,-9.100388E-3,-6.758372E-1,-1.7227215E-1,-9.115286E-1,-5.737158E-1,4.349376E-1,-3.7421632E-1,2.3849447E-1,5.245976E-2,4.0739772E-1,-7.822883E-1,1.3357136E-1,1.088225E0,2.7045527E-1,-8.6137545E-1,4.7474518E-1,8.228736E-1,-3.276105E-1,-1.8188646E-1,-8.2504517E-1,4.906015E-1,-2.9566914E-1,-8.1090796E-1,-1.3972001E-1,-8.221713E-1,4.174187E-1,6.985933E-1,-3.182439E-1,9.86115E-2,1.0217851E0,-5.5000883E-1,9.4818944E-1,5.010374E-2,1.2175378E0,1.2779132E0,7.272723E-2],"categories":[],"categories_nodes":[],"categories_segments":[],"categories_sizes":[],"default_left":[1,1,1,1,1,1,1,1,1,1,1,1,1,1,1,1,1,1,1,1,1,1,1,1,1,1,1,1,0,0,1,1,1,1,1,1,1,1,1,1,0,0,0,1,0,1,0,1,1,0,0,1,1,1,1,1,0,0,0,0,0,0,0,0,0,0,0,0,0,0,0,0,0,0,0,0,0,0,0,0,0,0,0,0,0,0,0,0,0,0,0,0,0,0,0],"id":18,"left_children":[1,3,5,7,9,11,13,15,17,19,21,23,25,